2142 100
he 0.042871 0.221523 -0.068859 0.121442 0.001493 -0.049745 0.085081 -0.066152 0.192089 -0.058250 0.149482 -0.025969 0.056078 -0.040408 0.032361 0.350276 -0.179566 0.052195 -0.086727 0.087747 -0.085758 -0.132191 -0.162918 -0.270588 0.081073 0.213145 -0.185155 -0.066014 0.112520 -0.030939 0.165847 -0.052423 0.298931 -0.151852 0.089688 -0.114136 -0.060252 -0.011160 0.095123 -0.048413 0.101933 -0.051786 0.098765 -0.002663 0.030818 -0.135034 0.113587 0.149524 -0.145300 -0.063522 0.060917 0.137920 0.157115 0.132742 0.094028 0.159178 0.106669 0.108019 -0.186194 -0.112824 0.039852 -0.232277 -0.142458 -0.013139 -0.319998 0.169587 0.125621 -0.015377 -0.138094 -0.044463 -0.100809 -0.063515 0.203593 -0.050054 0.052850 -0.022625 0.058012 0.073424 -0.102762 -0.151749 -0.322712 -0.032092 -0.113114 -0.124074 -0.102856 0.130746 -0.034329 -0.020776 0.037299 -0.031402 -0.059838 0.237314 0.137506 0.250401 0.017901 -0.258719 -0.154768 0.058255 -0.096350 -0.016016
her 0.021843 0.146726 -0.287199 -0.017910 -0.112584 -0.139309 -0.006457 -0.040238 -0.032705 -0.171387 0.049171 0.115799 -0.197195 0.041102 -0.060314 0.025555 -0.194283 -0.154512 -0.239713 -0.072125 -0.106912 -0.028130 -0.095234 -0.116174 0.056718 0.205369 -0.202656 -0.218757 0.087967 -0.028574 0.046964 0.150328 0.025478 0.069507 -0.051766 -0.188564 0.210121 0.043751 -0.042802 0.119948 0.177865 -0.213869 0.026730 0.086265 -0.160153 -0.088337 0.070001 -0.109788 0.063994 0.198510 0.114390 0.023134 -0.075706 0.084222 -0.101917 0.144772 0.017370 -0.011387 -0.123727 -0.031874 0.099941 -0.014532 -0.243856 0.207212 -0.239387 -0.009030 0.089575 0.150449 -0.006718 -0.212251 -0.169463 0.252360 0.125341 0.180123 0.196443 0.091516 0.080645 0.148764 -0.159612 0.111890 -0.130841 -0.048505 0.092410 -0.180893 -0.067196 0.160146 0.280208 -0.085831 -0.275624 0.047228 -0.035697 0.108084 0.051102 -0.056343 0.221612 -0.197435 -0.104583 -0.179632 -0.010302 -0.041104
doctor 0.027109 0.287326 -0.140774 0.079212 -0.138941 -0.034441 -0.105255 0.007201 -0.075227 -0.060062 0.022191 0.195361 -0.114660 -0.048886 0.066216 0.322351 -0.147368 0.074219 -0.047219 -0.089510 -0.128790 0.031070 -0.094086 -0.019947 0.099257 0.177362 -0.176990 -0.134605 0.239348 -0.160256 -0.072629 0.028126 0.108296 0.074157 -0.097784 -0.042299 0.099003 0.035217 0.039405 0.170408 0.183843 -0.028235 -0.042620 -0.006111 -0.070765 -0.050853 0.170033 0.018256 -0.019459 0.061140 0.144514 -0.059811 -0.078548 -0.122555 -0.003149 0.130515 0.136101 -0.002108 -0.122970 -0.058498 0.116580 -0.020105 -0.300739 0.214614 -0.215744 -0.034747 0.083162 -0.062565 -0.092534 0.011551 0.041035 0.112943 0.221895 -0.137956 0.423346 0.014390 0.037095 0.230184 -0.234109 -0.018774 -0.181891 -0.090023 -0.098685 -0.239627 -0.142108 0.134973 0.084363 -0.045991 -0.062822 0.030798 -0.052880 0.185264 0.051781 0.203541 -0.134171 -0.350786 -0.159848 -0.038255 -0.169960 -0.164917
not 0.079461 0.268839 -0.080351 0.143731 -0.068282 -0.035222 -0.124112 0.017192 0.184926 -0.163314 0.080960 -0.020197 -0.144572 0.129553 0.007169 0.119882 -0.157756 -0.013243 0.123114 0.084504 0.005016 -0.164295 -0.190913 -0.137666 0.007412 0.124361 -0.096564 -0.209860 0.001285 -0.034338 -0.015406 0.058966 -0.000677 0.015361 -0.030253 -0.027810 0.160666 -0.194156 -0.021758 -0.019352 0.321878 -0.219310 0.250274 0.042303 0.030656 0.110244 0.004060 0.138618 -0.027359 -0.029664 0.002134 -0.021712 0.110180 0.223649 0.012126 0.187925 0.073169 0.083091 -0.074588 -0.014553 0.078365 -0.234768 -0.114093 0.117380 0.004832 0.006106 0.068658 0.084028 0.007329 0.022804 -0.041056 0.247713 0.119666 0.038520 0.241477 0.131038 0.084004 0.023948 -0.021884 -0.179464 0.001076 -0.130467 0.054052 -0.204550 -0.033743 0.233288 0.142862 0.109977 -0.140329 0.102567 -0.024461 0.056367 0.247337 -0.046474 0.069722 -0.234188 -0.111772 -0.120219 -0.254634 0.008944
his 0.129326 0.201821 -0.124552 0.059332 -0.068852 0.133338 0.023545 -0.080725 0.090586 -0.112302 0.328250 0.072512 0.000031 0.105163 0.200367 0.130598 -0.263457 0.028675 -0.316828 0.073614 0.017857 -0.110258 -0.127892 -0.165317 0.300075 0.242456 -0.062762 0.035928 0.147720 0.065008 -0.010017 -0.179187 -0.001855 -0.136444 0.127362 -0.083400 -0.026962 -0.099703 -0.149695 -0.096972 0.080669 -0.023713 0.285870 0.053337 0.187352 -0.130127 0.186272 0.070940 -0.053596 0.130583 -0.162619 0.047594 -0.114008 -0.036718 0.100363 0.176303 0.148015 0.055803 -0.201415 -0.299812 0.142593 -0.121869 -0.045762 0.080221 -0.224346 0.214502 0.100969 -0.213656 0.012593 -0.203792 -0.150389 0.019417 0.337384 0.002620 0.109422 -0.010381 0.022637 -0.199063 -0.219951 -0.031917 -0.079730 -0.069018 0.017703 -0.165162 -0.088434 0.185603 0.056725 -0.077560 -0.051287 -0.050679 0.048602 0.197101 0.084782 0.183328 0.237577 -0.269246 -0.283720 -0.096498 -0.019963 -0.021845
time 0.020525 0.086419 -0.025713 -0.073454 0.054860 0.193098 -0.245490 -0.134999 0.106705 -0.156176 0.066141 0.205449 -0.199165 0.067397 0.030725 0.380112 0.018759 -0.041243 0.039419 -0.177546 -0.131468 -0.009937 -0.251700 -0.005493 0.162267 0.176299 -0.170553 -0.426875 0.257850 0.023283 -0.090594 -0.018794 0.054168 -0.039725 0.155658 -0.126301 0.134312 -0.023228 -0.083805 0.007018 -0.078416 -0.040639 0.121324 0.277658 -0.109533 0.031458 0.034747 0.016917 0.024177 0.116493 0.209168 0.145731 -0.056494 0.177064 -0.029479 0.210980 0.056526 0.079268 -0.035748 -0.004173 -0.110558 -0.041668 -0.245886 -0.144114 -0.325222 -0.050797 0.285430 0.090914 -0.317162 0.053090 -0.167750 -0.090860 0.231714 0.161039 0.293727 0.113749 -0.194771 -0.029743 -0.149961 -0.195603 -0.029746 -0.126184 0.025897 -0.228379 -0.101792 0.022804 -0.048530 -0.018022 -0.032427 0.142797 -0.074611 0.198411 -0.013369 0.066832 -0.203588 0.012624 -0.281079 -0.088747 -0.109927 0.066296
staff 0.160695 0.241029 -0.056538 0.082332 -0.164389 -0.009710 -0.160136 -0.174935 -0.112399 -0.366428 0.125191 0.325776 -0.200759 0.111516 -0.057723 0.022044 -0.097898 0.088693 -0.123094 -0.173704 -0.080839 0.132006 -0.006309 0.009522 0.241294 0.207016 -0.100402 -0.173737 0.191695 -0.021473 -0.117582 -0.051358 -0.129523 0.271204 0.218997 -0.103586 -0.082113 0.035505 -0.195016 -0.055225 0.003413 -0.118018 0.200939 0.056373 0.050282 -0.157765 0.214555 -0.109535 -0.110738 0.340303 -0.052703 0.263825 -0.148825 -0.215111 -0.016424 0.203145 0.007384 0.338230 -0.043292 0.042066 0.352992 -0.086216 -0.058417 0.069083 -0.032742 0.109379 0.042418 -0.144032 0.224635 0.092405 -0.259694 0.060433 0.304987 0.048304 0.353903 0.064166 -0.133682 -0.237416 -0.045818 -0.069810 -0.031675 -0.001483 0.065703 -0.408719 -0.214790 0.151339 0.181636 -0.107108 -0.251393 0.013619 -0.151682 0.046730 0.108619 0.072377 -0.009606 -0.062250 -0.313231 -0.123541 0.056234 0.235832
patient 0.127431 0.339115 -0.315103 0.013862 -0.045566 -0.063220 -0.028362 -0.257053 0.148905 -0.197756 0.147521 0.076644 -0.176052 -0.035036 -0.054456 0.024061 -0.151061 -0.016370 -0.033843 -0.084309 -0.129097 0.044333 -0.088631 -0.153313 0.269920 0.245014 -0.174541 -0.178996 -0.006195 -0.224237 -0.237541 0.047140 0.009739 -0.051521 0.102397 -0.079694 -0.031235 -0.059424 0.002243 0.200071 0.012979 0.094957 0.193826 0.105299 -0.003910 -0.054763 0.000197 -0.127974 -0.103662 -0.171916 -0.015716 0.025568 -0.076167 -0.059453 -0.031345 0.151955 0.019968 -0.080588 -0.139049 -0.151509 0.035732 -0.090801 -0.298711 0.252582 -0.299440 0.185513 0.026288 -0.085101 -0.306905 -0.020364 -0.248571 0.178374 0.176196 0.064561 0.213827 0.226930 0.164576 -0.068235 -0.324869 -0.169214 -0.172531 -0.224332 -0.106606 -0.196098 0.047131 0.214087 0.059612 0.118313 -0.295940 0.099755 0.194137 0.344642 0.006461 0.139706 0.098203 -0.171709 0.028626 -0.064395 -0.048948 0.110331
him -0.063995 0.335119 -0.000111 0.133368 0.004160 -0.141315 -0.092268 0.113068 0.084410 -0.121447 0.076175 0.280376 -0.240624 0.104805 0.092258 0.205827 -0.148191 -0.118379 -0.025353 0.326095 -0.141691 -0.064430 -0.290602 -0.113969 0.358391 0.271642 -0.101163 -0.006115 0.127086 -0.074127 0.133500 -0.096577 0.012497 -0.254593 0.070132 0.013374 -0.024187 0.071783 -0.010451 -0.039423 0.028357 -0.180462 0.076790 0.166698 -0.128082 -0.118401 0.176334 0.138400 0.041368 -0.036976 0.163311 0.310012 0.007010 0.144825 -0.031846 0.065941 0.287143 -0.015260 -0.163630 -0.262733 -0.023773 -0.019698 0.024203 0.245697 -0.078089 0.092951 0.085275 -0.007854 -0.065230 0.030841 -0.294449 0.140077 0.048230 -0.337418 0.080649 -0.090431 -0.017231 0.130723 -0.059904 0.074338 -0.261786 0.019625 -0.094688 -0.331735 -0.320218 0.092453 0.142568 -0.204798 0.129821 -0.026694 -0.158819 0.156394 0.192117 0.141519 0.151680 -0.361904 -0.179265 0.005747 -0.079327 -0.070064
care -0.153787 0.224919 -0.320481 -0.032771 0.009060 0.140160 0.150774 0.109279 -0.167395 -0.137523 0.146691 0.240547 0.066946 -0.070348 0.118690 0.152482 -0.120842 -0.005696 -0.303520 -0.051088 -0.197980 0.250341 -0.073115 0.003719 0.138018 0.161586 0.024223 -0.181019 0.038468 0.012146 0.077060 -0.085414 0.042506 0.227236 0.100331 -0.108178 0.018377 0.029103 0.135952 -0.009182 0.066755 0.105071 0.075291 0.107185 0.230901 -0.211491 0.180452 -0.157358 -0.078532 0.106897 -0.255788 0.086477 -0.182456 -0.131703 -0.072511 0.203601 0.145356 -0.055222 -0.112138 -0.135731 -0.118126 -0.112775 -0.047034 0.206973 -0.099318 0.240084 0.271108 0.063379 -0.112202 0.017723 -0.057959 0.002333 0.008174 0.154300 0.183944 0.117859 0.127026 0.154767 -0.357170 -0.271824 -0.110376 -0.200876 0.007012 -0.232818 -0.226801 0.242697 0.130719 -0.164787 -0.449436 0.049349 -0.034836 0.178314 0.063914 0.037203 0.080613 -0.261964 -0.250751 0.057498 -0.091074 -0.012272
surgery -0.144118 0.083134 -0.109970 0.026333 0.010566 -0.158169 0.145536 -0.267788 0.250935 -0.249306 0.033800 -0.121234 0.068514 -0.040825 -0.081396 0.184652 0.197260 -0.241563 -0.230260 0.257916 -0.146118 -0.112252 -0.134009 -0.257505 -0.153148 -0.056741 -0.095387 0.050519 0.060559 0.140797 0.058998 -0.049255 0.005195 -0.079182 0.295311 -0.085833 0.257776 0.212875 -0.441791 -0.244957 -0.111940 -0.006757 0.343138 -0.020313 0.109008 -0.075660 0.162885 -0.127952 -0.081045 -0.066123 -0.074948 0.081205 -0.116498 0.028232 0.170463 -0.036275 0.081665 0.471195 -0.111488 -0.198098 0.378547 0.039336 -0.141564 -0.336663 -0.197383 -0.006300 0.199172 0.034040 -0.125018 0.308562 0.126362 0.052343 0.004406 0.214669 0.199482 -0.149293 -0.064459 -0.101543 0.111691 0.019742 0.029253 -0.061197 0.325667 -0.219622 0.118320 0.107808 0.220224 -0.284108 -0.031392 -0.109266 -0.110412 -0.234399 0.384234 0.117540 0.077674 -0.498781 -0.609671 0.279356 -0.036807 0.062434
recommend 0.096690 0.118145 -0.025026 -0.200593 0.001151 0.003253 0.168088 -0.095166 -0.098645 -0.235709 -0.219251 0.175576 -0.000330 0.160759 0.027599 0.016683 -0.202365 0.025678 -0.105609 0.334685 -0.412329 0.083852 -0.290809 -0.208605 0.143522 0.167621 -0.018163 -0.033166 -0.089478 -0.140580 0.041877 -0.204118 0.124270 0.167476 -0.040053 0.093811 0.217223 -0.123484 0.172945 0.158047 0.092851 0.025052 0.200131 0.102304 0.029870 -0.068679 0.458091 -0.408287 0.272855 0.288310 -0.134563 0.130543 -0.377995 -0.018919 -0.184612 -0.048056 0.398859 0.060180 -0.229231 0.021908 0.282665 -0.007770 0.018316 -0.035239 -0.122743 0.172541 0.061690 -0.231575 -0.122575 0.031816 -0.086096 0.284565 0.353514 -0.027646 0.184889 -0.048779 -0.256919 -0.185980 0.130953 0.101443 -0.287500 0.119488 0.346130 -0.484022 -0.333152 0.184019 0.438909 -0.333308 -0.144139 -0.009632 -0.071365 0.123093 0.303327 0.124242 0.295507 -0.143826 -0.086326 0.035499 -0.013228 0.306440
year -0.105947 0.107353 -0.207987 -0.158795 0.260093 0.171884 0.023395 -0.042979 0.097405 0.145816 -0.039389 0.317544 0.034148 -0.016854 -0.071458 0.108690 0.005784 -0.169012 -0.283052 -0.027986 0.071343 0.268985 0.010696 -0.285522 0.269881 0.294311 -0.117424 -0.205890 0.034747 -0.162628 0.118145 0.139777 -0.120732 -0.218411 -0.073070 -0.218941 0.249631 0.228561 0.063534 0.164153 0.281127 0.084363 0.153579 -0.132583 -0.027150 -0.098577 -0.031307 0.128424 -0.153133 -0.052887 0.014792 0.131771 -0.096329 -0.155187 0.288157 0.351288 0.297025 0.149428 -0.169823 -0.050155 0.054948 0.125396 0.010310 -0.002963 -0.270629 -0.144092 -0.188292 0.233739 -0.381411 0.050362 -0.144336 0.297598 -0.072042 0.060600 0.262635 -0.345684 -0.183881 0.313803 -0.230502 0.026671 0.182858 -0.152694 0.194385 -0.482091 -0.300180 0.053785 0.010968 -0.152332 0.179890 -0.152083 0.094140 0.196303 0.115924 0.235150 -0.203794 -0.385264 -0.066640 0.248551 -0.051987 -0.014984
great -0.084886 0.187543 0.138810 0.076214 0.318486 -0.029477 0.000151 -0.255996 0.126069 -0.239468 -0.140303 0.121242 -0.158066 0.000148 0.030420 0.156355 0.115644 -0.051692 -0.241460 0.070945 -0.160934 0.111991 0.169070 -0.021015 0.340963 0.189371 -0.200756 0.076734 0.036896 -0.154201 -0.048384 -0.214554 0.051962 0.183906 0.140905 0.094633 0.196918 0.066804 0.218864 0.078047 0.111611 0.175703 0.096241 0.174708 -0.023823 -0.109905 0.348245 0.044155 -0.109435 0.215485 -0.243889 -0.015227 -0.049784 -0.121193 0.011871 0.410568 0.093917 0.101607 -0.271961 0.047391 0.091721 0.151927 -0.216353 -0.261529 -0.212905 -0.159191 0.265898 0.031280 -0.069463 -0.088430 -0.219865 -0.029315 0.203938 0.232909 0.227678 0.184453 -0.208890 -0.167325 -0.273982 0.024109 -0.170255 0.120547 0.160357 -0.245693 -0.116860 0.034171 0.295615 -0.098902 -0.098017 -0.143382 -0.121051 0.046854 0.064742 -0.062362 0.097420 -0.188234 -0.129085 0.039277 0.074822 0.030506
after 0.087185 0.036015 0.015687 -0.156298 0.001897 -0.245083 -0.234188 -0.022805 0.124740 -0.097538 -0.112265 0.077317 -0.049149 -0.054232 0.011136 0.248980 0.042112 -0.037651 -0.243079 -0.050699 0.071653 -0.100506 -0.121638 -0.271070 -0.070942 0.229280 -0.076320 -0.144812 -0.041887 0.075823 0.241811 -0.010567 0.037217 -0.027733 0.024614 -0.068285 0.218229 0.051126 -0.208267 -0.374326 0.128783 -0.248090 0.249503 0.010686 -0.134308 -0.097253 0.097850 0.165467 -0.223210 -0.067757 0.228586 0.146836 -0.125793 0.334243 0.093449 0.259072 0.119709 0.108316 -0.360899 -0.270269 0.214772 0.287904 0.081020 -0.240757 -0.136486 0.031912 -0.071568 0.058954 -0.235380 0.141958 0.019357 0.142731 0.008320 0.110979 0.126141 -0.282108 -0.012284 0.028057 0.083379 -0.027107 0.128496 0.029838 0.131430 -0.330550 0.016148 0.062155 0.093660 0.218225 -0.064613 0.174732 0.021353 0.060619 0.015857 -0.103352 -0.042456 -0.129513 -0.265673 -0.034739 -0.133996 -0.093981
best -0.098934 -0.131368 -0.163234 0.059799 0.071142 0.115495 -0.087138 0.029738 0.083536 -0.096603 0.099366 0.204098 0.089187 0.125757 0.084361 0.285691 0.020993 0.189939 -0.087992 0.223743 -0.052062 -0.136611 0.011883 -0.026281 0.359687 0.283367 0.004151 -0.113151 0.251082 -0.555672 0.147328 0.192462 0.063594 -0.028659 -0.140837 -0.154147 0.125689 0.043027 0.377328 0.175315 0.215749 0.312835 0.179384 0.162105 -0.091565 -0.143345 0.212144 -0.123686 -0.097975 0.189617 -0.068717 -0.250131 -0.302706 -0.129400 -0.057900 0.191821 0.146532 0.097888 -0.358748 0.149772 -0.196819 -0.290537 -0.059562 0.136947 -0.252625 -0.051756 0.448641 -0.080455 -0.004916 0.160499 -0.177544 0.070989 0.197985 0.143750 0.167079 0.051130 0.085752 0.098095 -0.239684 0.098284 0.078469 0.189494 -0.125038 -0.088787 -0.359336 -0.132043 0.217432 0.094459 -0.194358 -0.035168 -0.123495 0.165977 0.285225 -0.013597 0.006829 -0.682255 -0.054924 0.056319 0.076992 0.007014
always 0.145165 0.174206 0.001474 0.199903 0.012360 -0.122624 -0.083805 -0.263139 -0.163812 -0.107201 -0.028961 0.185428 -0.003425 0.097673 0.079191 -0.055479 -0.395368 0.076007 -0.123667 -0.156868 0.060714 0.084721 -0.022433 0.015202 0.401772 0.308839 -0.195820 -0.149737 0.417772 -0.099467 -0.088558 0.101939 0.172828 -0.080695 -0.095677 -0.156531 -0.003812 0.109037 0.103503 0.079076 -0.088351 -0.233043 0.150535 0.336728 -0.049383 -0.088479 0.162497 -0.031961 -0.013459 0.311122 0.069887 -0.077501 -0.125814 -0.069462 0.035978 0.169897 0.087519 0.170183 -0.108938 0.000497 0.138140 -0.166554 -0.145543 0.086538 -0.258806 -0.165217 0.108565 0.015999 -0.172751 0.191953 -0.271626 0.020587 0.404680 0.239346 0.315394 0.034948 -0.078379 -0.008864 -0.102504 -0.447058 -0.305774 -0.014870 -0.056822 -0.164181 -0.533354 -0.234717 0.143556 -0.130452 -0.230011 0.069673 0.077324 0.196567 0.029975 -0.014370 0.011110 -0.056414 -0.271733 0.082692 0.104248 0.152725
see -0.136014 0.067827 -0.078305 -0.046232 -0.084979 -0.193103 -0.017219 0.183053 -0.032639 -0.177932 -0.096999 0.155475 -0.142164 0.024404 0.162501 0.432839 -0.129287 -0.189884 0.080757 0.064600 -0.176088 0.175647 -0.102080 -0.226579 0.056904 0.112391 -0.368384 -0.051509 0.147825 -0.018951 0.072201 0.296708 -0.006445 -0.003011 -0.125485 0.179612 0.116584 0.032197 -0.172337 0.093934 0.221411 -0.219586 0.211315 0.125081 0.059667 0.118030 0.022699 -0.048989 0.102507 0.023146 0.121792 0.236592 -0.142645 0.169353 -0.089352 0.188533 0.193271 0.088873 -0.318885 0.043423 -0.052911 0.051227 -0.184458 0.169324 -0.079804 0.090488 -0.094418 0.148768 -0.016218 0.205584 0.039857 -0.107488 -0.100020 -0.121902 0.188784 0.075054 -0.224263 0.079162 -0.014559 -0.098493 0.026847 -0.046138 -0.029205 -0.248565 -0.236011 0.274369 0.184514 0.108040 0.124875 0.032433 -0.084152 -0.106471 0.236723 -0.015023 -0.133707 -0.043602 -0.288759 0.023470 -0.274244 0.224375
feel -0.235457 0.211103 -0.100448 0.162871 -0.116861 -0.156905 0.016985 -0.013440 0.086636 -0.316506 0.086116 0.047899 0.386518 0.002238 0.011467 0.154655 0.067756 0.139520 -0.052535 -0.086617 -0.297826 -0.153311 -0.172156 -0.206712 0.446082 0.199315 -0.071774 -0.081342 -0.132927 -0.163460 -0.109693 0.088243 0.353304 -0.036420 0.031782 0.202069 0.155825 0.008881 -0.132036 -0.013463 -0.095762 -0.178778 0.223782 0.307372 -0.120089 -0.385464 0.116726 -0.056477 -0.145609 0.420285 0.195281 0.510790 -0.244917 -0.099463 -0.083921 0.228245 -0.286292 -0.046043 0.142671 -0.225595 -0.186580 -0.118290 -0.073895 0.126204 -0.400789 -0.054704 0.252057 -0.018851 0.025527 -0.103713 -0.289462 0.126223 0.153283 -0.147617 0.341042 0.366731 -0.158239 0.056126 -0.172432 -0.137572 -0.099685 0.102954 0.172453 -0.321712 0.102744 -0.026498 -0.197397 -0.328798 -0.038149 0.076349 -0.034082 0.079674 -0.046024 0.016891 0.175158 -0.204518 -0.051437 -0.035307 -0.316454 0.003995
highly 0.038393 0.146469 0.142587 -0.046687 -0.146331 0.075762 0.316879 -0.112032 -0.189592 -0.164634 0.116571 0.294337 -0.206638 0.222883 0.126344 -0.011280 -0.011453 -0.112700 0.097722 0.354699 -0.441630 -0.050290 -0.174146 -0.128689 0.266883 0.351395 -0.073209 -0.111028 -0.055801 -0.199218 0.063761 -0.344879 0.183757 -0.010226 0.275141 -0.095532 0.184522 0.005206 0.031702 0.118540 -0.046368 0.114613 -0.052749 0.010259 0.156841 -0.236612 0.297389 -0.415407 0.183101 0.302301 -0.178373 -0.062253 -0.099119 -0.059563 -0.153320 0.221105 0.212410 0.042742 -0.419048 0.116621 0.165957 0.096884 0.020386 -0.047288 -0.137965 0.188196 0.015030 -0.319566 -0.218716 -0.112587 -0.134748 0.361880 0.295489 0.096875 0.207012 -0.109452 -0.138807 -0.015850 0.103081 0.026255 -0.149486 0.086415 0.274096 -0.478910 -0.306854 0.318658 0.223524 -0.415936 -0.134740 0.033248 -0.169298 0.161687 0.204755 0.066957 0.236444 -0.319154 -0.101864 0.079406 0.008918 0.186583
question 0.217055 0.118763 0.118836 0.055178 -0.390221 0.165854 -0.185154 -0.129058 0.151284 -0.083307 -0.002348 -0.144327 -0.166504 0.185522 -0.098570 -0.011329 -0.040140 0.086518 -0.030605 -0.310038 -0.334407 0.104996 0.033157 -0.106961 0.023823 -0.083375 -0.360337 -0.267835 0.051614 -0.115004 -0.120500 0.095209 0.259326 -0.488529 0.102558 0.020845 -0.129218 -0.001842 -0.101604 0.004923 -0.305693 -0.192199 0.324394 0.223929 -0.208366 -0.183805 0.232676 -0.148471 0.330365 0.161239 0.118124 0.028389 -0.102741 0.268929 0.197048 0.260369 0.196207 -0.056850 -0.067147 -0.072180 0.190942 0.078096 -0.339392 0.042892 -0.576419 0.016536 0.357929 -0.076236 -0.426880 0.235591 -0.383260 0.050120 0.172954 0.298836 0.439891 0.420707 0.124389 -0.229310 0.027806 0.010548 -0.664593 -0.086774 0.125933 -0.293327 -0.283899 -0.060397 -0.210587 -0.051326 -0.194474 0.133963 -0.365619 0.107073 -0.189698 -0.120785 0.116773 -0.034510 -0.234283 0.001056 0.047695 0.040864
like -0.343668 0.362307 -0.115152 0.188583 0.023980 -0.081437 -0.007410 0.013559 0.091351 -0.348464 0.045885 -0.179552 0.038828 0.130124 0.021167 0.079040 -0.082949 -0.108826 0.000862 0.001757 -0.109022 0.048722 -0.022738 0.034619 0.213292 0.225467 -0.224656 -0.414634 -0.148627 0.007479 0.108012 -0.046038 0.154079 0.062352 -0.293717 0.125499 -0.027162 -0.134256 0.206474 0.143522 0.292405 -0.256893 0.230768 -0.048053 -0.114374 -0.075689 0.087577 0.118468 -0.105492 0.053566 -0.257490 0.242109 0.083993 -0.020459 0.041989 0.147349 0.097487 0.185490 -0.027991 -0.030258 -0.144795 -0.026324 -0.381419 -0.096223 -0.216733 -0.008683 0.206952 0.122362 -0.071512 0.128040 -0.022314 0.325804 0.009556 -0.105128 0.362253 0.140793 -0.010205 0.001564 -0.180072 -0.168258 -0.225269 -0.015106 -0.133357 -0.146752 -0.157265 0.034686 -0.040508 -0.045290 -0.208699 -0.006825 0.057705 0.096956 0.037693 0.183901 -0.054416 -0.123291 0.161082 -0.133308 -0.372045 -0.070228
caring 0.219559 0.119974 0.031014 0.031490 0.018135 0.153677 -0.043258 -0.228492 -0.088067 -0.008859 -0.058527 0.153067 0.025175 -0.112227 0.106159 0.113920 -0.252713 0.085419 -0.151853 0.085479 -0.055173 -0.069400 -0.214166 -0.190123 0.217143 0.019398 -0.184400 -0.197169 0.208221 -0.272163 0.026364 -0.059265 0.158546 0.056152 0.041197 -0.131744 -0.046021 -0.066054 0.168030 0.170180 0.018894 0.233130 0.091502 0.165128 0.104282 -0.180595 0.276868 -0.065444 0.112151 0.406930 0.083312 -0.054176 -0.048411 -0.371547 -0.084614 0.384195 0.320267 0.177536 -0.063965 0.010408 0.172376 -0.029259 -0.195647 0.272293 -0.149106 0.046611 0.306537 -0.176335 -0.079073 -0.105650 0.021542 0.136068 0.271644 0.077314 0.313030 0.032837 -0.246014 -0.071865 -0.308387 -0.057452 -0.240179 0.217456 0.018871 -0.225235 -0.254712 0.336800 0.315739 -0.166835 -0.312307 -0.229294 0.153828 0.381815 0.207981 0.342243 0.045926 -0.242492 -0.143013 0.072606 0.075691 0.068614
knowledgeable 0.221710 0.066519 0.007320 0.041033 -0.007270 0.090941 -0.004484 -0.351312 0.012116 -0.125896 0.192267 0.360857 0.219066 0.306779 -0.013597 0.136107 -0.202370 -0.036028 -0.076585 -0.075448 -0.026005 -0.180042 -0.119928 -0.207658 0.334108 0.104204 -0.087092 -0.273440 0.008964 -0.293816 0.028840 0.089594 0.157718 -0.003552 -0.020350 0.072388 0.052159 -0.199815 0.139244 0.132687 -0.073389 0.175993 -0.035355 0.155957 0.013759 -0.248692 0.272625 -0.069324 0.107366 0.508025 -0.034849 -0.005184 0.030253 -0.047934 -0.094214 0.380824 0.081598 0.307429 -0.283862 -0.028504 0.275098 -0.136482 -0.179349 0.087940 -0.221663 0.088449 0.169344 -0.062311 -0.243196 -0.078541 -0.110792 -0.026955 0.380337 0.067764 0.220622 0.077375 -0.230069 -0.057951 -0.105558 -0.073454 -0.391395 -0.018838 0.109071 -0.334680 -0.393727 0.140802 0.217954 -0.159100 -0.181084 -0.185284 -0.087385 0.401823 0.131771 0.008678 -0.285460 -0.254532 -0.010070 0.072505 0.151556 0.198219
good -0.097004 0.239576 0.207246 0.286344 -0.033238 0.142632 0.116589 -0.108930 0.081538 -0.189374 0.039937 0.103270 -0.402067 0.091561 0.085947 0.235297 0.033180 0.042691 -0.261384 -0.085636 -0.109234 -0.142609 0.175995 0.195354 0.355949 0.101236 -0.252334 -0.205541 0.017187 -0.333142 0.173055 -0.290021 0.303555 0.019202 0.211587 0.179811 0.282490 -0.219929 0.410037 -0.095021 0.284054 0.342326 0.188156 0.287653 0.005480 -0.194812 0.354045 0.087956 -0.121529 0.103518 -0.115909 -0.187638 -0.049495 0.208518 0.021134 0.109720 0.180739 0.235869 -0.252324 -0.086699 -0.062870 0.184633 -0.236072 0.092073 -0.102025 0.158397 0.129834 0.276146 -0.191867 -0.105056 -0.052645 0.114565 0.070776 -0.141094 0.225245 0.193061 0.085326 0.085540 -0.239988 -0.107400 -0.038719 0.127590 -0.110455 -0.104563 -0.037373 -0.056702 0.236346 0.095555 -0.034712 -0.175353 -0.003872 -0.104410 -0.029009 0.206205 0.171812 -0.342881 -0.044452 0.168114 0.058058 0.019606
get -0.067587 0.100542 -0.021922 -0.061534 -0.058693 -0.201940 -0.282751 -0.008300 0.080137 -0.335832 -0.065831 0.058766 -0.188360 0.126802 0.122151 0.346838 0.019880 0.003034 0.195014 -0.153433 0.205161 -0.163649 -0.022687 0.058993 0.216913 0.369176 -0.239924 -0.220068 0.125502 -0.044247 -0.174524 0.128802 -0.152638 0.033120 0.197680 0.308107 0.124601 -0.070371 0.204509 -0.187610 0.377639 -0.126191 0.399320 0.027332 -0.028613 0.116848 0.223959 -0.060257 0.020110 -0.184659 0.134336 0.084257 -0.122552 0.044138 0.253335 0.230945 0.031349 0.106951 -0.162840 0.030035 -0.045332 0.060573 -0.146835 0.131496 -0.394023 -0.263144 0.061198 0.185823 -0.101599 0.069192 0.320138 0.067058 0.221264 0.004304 0.078278 0.173874 -0.108724 0.105282 0.030418 -0.284427 -0.154890 -0.145544 0.102597 -0.121471 0.146486 0.167953 0.036002 0.145775 -0.085933 0.029741 -0.212367 -0.137535 0.135770 0.094747 0.063441 0.235447 -0.149738 -0.019367 -0.238587 0.069366
never -0.176296 0.437414 -0.092959 -0.010844 -0.122328 -0.341080 -0.154142 0.108259 0.081116 -0.050292 -0.094136 0.035834 -0.132860 0.290564 0.045455 0.089713 0.144440 0.052534 0.157257 -0.079493 -0.117236 0.001035 -0.157753 -0.075664 0.086706 0.130561 0.178782 -0.318055 0.195889 0.096680 0.190848 0.208846 0.050942 -0.328642 -0.093931 -0.006328 -0.021696 -0.050872 0.042102 -0.107343 0.116122 -0.129784 0.302041 0.095495 0.017482 0.033462 0.024899 0.124118 -0.044832 0.045102 0.258863 0.134494 -0.317548 -0.015734 -0.156144 0.076626 0.156253 0.161575 -0.110536 -0.095643 0.206836 -0.345371 -0.371365 0.091733 -0.355238 0.079134 0.214710 0.159614 0.032880 0.101930 -0.337412 0.411133 0.138635 0.148548 0.091708 0.256382 0.063171 0.068782 0.151831 0.016021 0.034309 -0.059969 -0.128387 -0.333995 -0.161613 0.047614 -0.030027 -0.098896 -0.237565 -0.047388 -0.152844 0.206766 -0.071114 0.139216 -0.175731 -0.140782 -0.182842 -0.098278 -0.204241 0.048257
appointment 0.099127 0.179211 -0.178511 -0.070259 -0.000556 -0.080975 -0.380217 0.044196 0.063067 -0.188964 0.033058 0.352867 -0.152655 0.192594 -0.078326 0.087917 0.053073 -0.265763 -0.125455 -0.195694 -0.280191 0.009172 -0.234950 -0.074841 0.153471 0.141001 -0.292500 -0.179366 0.158325 0.311660 0.066323 0.038833 0.140727 -0.061099 0.046773 0.008128 0.086159 -0.111003 -0.177836 0.077887 -0.046243 -0.194645 0.312685 0.120626 -0.373563 0.271260 0.029739 0.134721 0.196307 -0.091005 -0.289596 0.080685 -0.244845 0.269350 0.014270 0.385415 -0.004229 0.238624 -0.164091 -0.049665 0.082349 -0.092980 -0.317326 -0.002052 -0.089822 -0.049430 -0.115437 0.190845 -0.036832 0.046996 -0.111256 -0.070227 0.179985 -0.199398 0.468989 0.073281 0.121263 -0.271947 0.048665 -0.505669 0.107991 -0.213978 -0.095123 -0.074119 -0.125909 0.238742 -0.077368 0.162746 0.166747 0.171230 -0.152355 -0.074473 0.027475 -0.057401 -0.149565 0.136149 -0.562644 0.175751 -0.043472 -0.099320
professional 0.042798 0.303897 0.096771 0.018522 -0.021754 0.047666 -0.054518 -0.010865 -0.145346 -0.223366 0.295234 0.303102 0.137125 0.240874 -0.166999 -0.020469 -0.095640 0.110958 -0.317457 -0.082465 -0.024645 -0.019314 0.079773 0.022372 0.142161 -0.057803 -0.131458 -0.113704 0.155971 -0.087927 0.061326 -0.026114 0.010887 0.048203 0.091727 -0.255358 0.210879 0.025956 0.014755 -0.005965 0.014220 0.113093 0.127057 0.344568 0.191682 -0.208617 0.299480 -0.085287 0.043582 0.312640 -0.117305 -0.002167 -0.135582 -0.259873 -0.155020 0.322122 0.102450 0.496398 -0.212205 0.005213 0.306254 -0.149824 -0.030072 0.185371 -0.032073 -0.074947 0.080847 -0.148502 -0.057325 -0.109721 -0.139180 0.015274 0.329777 0.176215 0.347148 0.131387 -0.172130 -0.330899 -0.263475 -0.047184 -0.228135 0.102560 0.155024 -0.384739 -0.095002 0.219922 0.047971 -0.273916 -0.047102 -0.210966 -0.025966 0.072854 0.387438 0.027860 -0.034236 -0.282544 -0.170891 0.190523 -0.024445 0.145936
well -0.117934 0.173412 -0.147423 0.024494 0.124841 0.001401 0.083434 -0.063635 0.203951 -0.164484 0.214202 -0.037623 -0.020421 0.091718 -0.055829 0.400753 -0.069030 -0.348509 -0.169525 -0.140844 0.016909 0.054517 0.171532 -0.028924 0.251489 0.302896 -0.190865 -0.199764 0.014182 -0.071028 0.087832 -0.167814 0.152195 0.021768 -0.058779 -0.041261 -0.145874 -0.190286 0.113771 0.027541 -0.031685 -0.044594 0.054282 0.090358 0.094162 -0.291002 0.240335 -0.032260 -0.105582 -0.016720 -0.069927 -0.072035 0.016437 0.117508 -0.079333 0.266034 0.095529 0.098268 -0.008912 -0.020114 0.060933 -0.158741 0.030394 -0.114685 -0.175760 0.047235 0.079145 0.000958 -0.041630 -0.197332 -0.144230 0.032208 0.137989 0.136988 0.303393 -0.013844 -0.133861 -0.277124 -0.142221 0.017460 -0.226587 -0.084977 0.064303 -0.243935 -0.027353 0.185385 0.281661 -0.134934 -0.131524 0.025122 -0.181506 -0.016004 0.195560 0.060611 0.097015 -0.266342 -0.297826 0.033595 -0.101885 -0.161716
take -0.086122 0.171842 0.024407 0.106066 0.097113 0.111791 -0.229911 -0.191827 -0.012302 -0.175812 -0.160846 -0.028259 0.001972 -0.000761 -0.015741 0.497247 -0.506003 0.121879 -0.246365 -0.176976 -0.040281 -0.056162 -0.337196 -0.122013 0.129010 0.091629 -0.309283 -0.566257 0.158151 -0.065758 -0.083217 0.050061 0.052284 0.095421 -0.019889 0.045215 0.006594 -0.283374 -0.086164 0.128667 0.038650 -0.062223 0.004227 0.120329 -0.148348 -0.054960 0.233545 -0.240810 -0.095247 0.116561 0.116483 -0.016551 -0.117411 0.025267 -0.055278 -0.081357 0.020845 0.229399 0.036866 -0.161423 -0.113357 -0.454092 0.021610 0.092785 -0.234633 -0.060052 0.225814 0.002484 -0.350448 0.001447 -0.235708 0.055090 0.355108 0.284199 0.193951 0.254886 -0.354805 0.147613 -0.183962 -0.106464 -0.116317 -0.189300 -0.092512 -0.117905 -0.202819 0.023065 0.038606 0.201547 -0.243924 0.040831 0.072834 0.252937 -0.053229 0.143299 -0.035450 -0.012311 -0.099892 0.135558 0.213149 -0.069166
back -0.252932 0.187540 -0.136391 -0.092250 -0.116479 -0.211801 -0.239636 -0.003614 0.217156 -0.115210 -0.075759 0.254200 0.047997 -0.083126 0.057903 0.203298 0.039954 -0.287780 0.118889 0.073660 -0.153163 0.156432 -0.156098 -0.110700 -0.103966 0.463802 -0.157826 0.143127 -0.029249 0.358724 0.198408 0.156256 -0.318684 -0.119395 0.170980 -0.056693 0.049728 -0.067618 0.109423 -0.232123 0.122841 -0.102198 0.223041 0.128972 0.057853 -0.120193 0.088263 0.194490 -0.192097 -0.067229 0.147128 0.008233 -0.189118 0.193339 -0.111361 0.240252 0.154428 0.391722 0.090697 0.001609 -0.065761 0.126831 -0.137691 -0.079613 -0.096865 -0.104867 -0.134114 0.051757 -0.146442 0.168693 -0.015734 0.040823 0.183928 0.160405 0.206968 -0.104738 -0.119141 0.219558 0.336677 0.165141 -0.192444 -0.280047 -0.233627 -0.199611 -0.116149 0.013643 0.423070 0.068365 -0.120348 0.065797 -0.006430 -0.270484 0.147803 -0.265079 -0.128511 -0.210407 -0.295801 -0.231227 -0.182763 -0.211483
experience 0.396714 0.289546 -0.031314 -0.061435 -0.342479 -0.154292 0.079152 -0.050116 -0.193896 -0.089877 -0.093498 0.476159 -0.377501 0.259313 -0.078308 0.082187 0.352583 -0.009181 -0.206862 0.075858 -0.085772 0.378786 0.020474 -0.305125 0.107804 0.028722 -0.142948 -0.168455 0.367768 -0.144979 -0.048576 -0.040925 -0.133936 0.381215 0.186089 -0.037707 0.204127 0.045741 0.031384 -0.106684 0.134535 0.027285 0.166332 0.241294 -0.081529 -0.506135 0.281688 -0.251968 -0.223205 0.247370 -0.197331 0.002969 0.035290 -0.056644 0.398618 0.284371 -0.052801 0.164754 0.056329 0.144599 0.147399 -0.041746 0.000164 0.164423 0.055232 0.057459 0.363569 -0.164863 0.202660 0.119501 -0.074880 -0.013822 -0.103114 0.169649 0.695353 -0.137383 -0.011476 -0.231327 -0.094887 0.068300 -0.158742 -0.024684 0.334934 -0.445306 0.103037 0.042477 -0.002625 0.095894 0.013937 0.017096 0.091766 -0.117909 -0.060556 0.256741 -0.221863 -0.310996 -0.259812 -0.046319 -0.154867 0.072569
make -0.178464 0.263950 -0.222267 0.166110 -0.392183 -0.290767 -0.028618 -0.067811 0.050095 -0.173483 0.298735 0.014496 0.050420 -0.050190 0.263268 0.385507 -0.101926 -0.231524 -0.070469 -0.236421 -0.065719 -0.043985 -0.158789 -0.054884 0.175485 0.171876 -0.088806 -0.167373 -0.021437 0.058962 -0.179479 -0.085496 0.351961 -0.028523 0.098464 0.038804 -0.017850 -0.056583 -0.016004 -0.188390 0.011215 -0.049973 -0.078926 0.062852 0.103111 0.066312 0.243073 -0.005070 0.012571 0.266367 -0.095580 0.071615 -0.231598 0.056614 0.049077 0.025283 -0.126822 -0.035914 -0.149227 -0.032014 -0.091577 -0.376993 -0.247503 0.146911 -0.326459 0.071094 0.238306 0.135023 -0.092033 0.145721 -0.206192 0.408386 0.350556 0.110276 0.292488 0.069563 -0.105747 -0.045340 -0.087959 -0.434601 -0.324117 0.289178 -0.208017 -0.146698 -0.161116 -0.013740 -0.111435 0.145949 0.079338 -0.024505 -0.024042 0.135455 -0.062586 0.125900 0.242453 -0.032257 -0.223081 0.164188 -0.062575 0.232697
go 0.177876 0.213901 0.159645 0.105550 -0.192971 -0.164029 0.130991 0.207745 0.118879 -0.075725 -0.070117 0.089571 -0.004603 -0.289851 0.152408 0.165078 -0.217563 -0.236125 -0.068440 -0.082575 0.040829 0.276105 -0.202891 -0.017663 -0.110734 0.264144 -0.372953 -0.082006 -0.000477 -0.102570 -0.151584 0.142360 -0.326369 0.144044 0.051930 0.196998 0.257449 -0.114473 -0.039124 0.076502 0.138290 0.036312 0.332543 -0.037299 0.064065 -0.061332 -0.080934 0.083344 0.032959 0.207995 0.108935 0.303389 -0.089685 0.040934 0.094344 -0.119457 0.318257 0.247610 -0.227703 0.135541 0.058435 -0.475336 -0.312821 0.255939 0.095038 -0.186367 0.016562 0.180871 -0.177094 0.084402 -0.046018 0.255659 0.027785 -0.072016 0.239733 0.269418 -0.039069 0.091404 0.015003 -0.117428 -0.361858 0.083371 0.116768 -0.570742 0.079712 -0.095291 0.070038 0.319374 -0.080298 0.134742 0.010687 0.008715 0.184144 -0.132996 -0.063238 -0.235840 0.016397 0.147395 -0.006140 -0.064201
first 0.077613 0.166861 -0.101449 0.151788 0.026040 -0.042735 -0.354824 -0.141905 0.076920 -0.044245 -0.145776 0.088468 0.057226 0.195427 -0.192421 0.332708 0.026227 0.156232 -0.150747 -0.032908 -0.079004 -0.182677 -0.283715 -0.314675 0.096799 0.110861 -0.115652 -0.497125 0.247827 0.096567 0.301361 0.196993 -0.014909 0.251872 0.350285 -0.127280 0.375780 0.151063 -0.085621 -0.537815 0.176600 0.006678 0.271565 -0.078003 -0.275054 -0.243163 -0.013384 0.023020 -0.334582 0.146712 0.250755 -0.066496 -0.178243 0.282111 0.006599 0.482443 0.021450 -0.121707 0.024486 -0.100681 0.196923 0.082795 0.110431 -0.256767 0.137905 0.028419 0.206998 -0.199628 0.074230 -0.097088 0.096240 0.104513 0.005408 -0.049512 0.092661 -0.076308 -0.050894 -0.281507 -0.135888 -0.204230 -0.208529 0.179584 0.006481 -0.300094 -0.121634 0.011591 0.114224 0.132015 0.360844 0.108652 -0.007869 0.281519 0.002722 0.035991 -0.040673 -0.105241 -0.168367 0.007882 0.024840 -0.203251
know -0.168314 0.041072 -0.008385 0.286634 0.015885 0.164453 -0.013320 -0.120895 0.119700 -0.493122 -0.038132 -0.130082 -0.132055 0.106940 0.116012 0.209274 -0.025387 0.050336 -0.156689 -0.007754 -0.072072 -0.182933 0.010736 0.106397 0.124878 0.090822 -0.134713 -0.292745 -0.018951 -0.003066 0.041253 -0.108547 -0.163921 -0.075237 -0.042546 0.010890 0.339458 -0.094296 0.070551 0.073377 0.398559 -0.185116 0.019258 -0.147719 0.129757 -0.119690 0.141110 -0.002165 -0.183463 0.017957 0.066240 0.371568 -0.145214 -0.233332 0.092029 0.063922 0.229176 0.132925 -0.033042 0.421985 -0.074019 -0.216954 -0.156595 0.339337 -0.197130 -0.015544 0.089994 0.133934 -0.164051 -0.191947 -0.107895 0.077035 -0.053502 0.004188 0.218642 0.142036 0.080157 -0.068329 -0.134926 -0.185814 -0.351829 -0.299613 -0.202452 -0.202803 -0.360497 0.003509 -0.012223 -0.029172 -0.078382 0.001630 -0.006224 0.233329 0.135597 -0.108510 0.133479 -0.076751 0.094050 -0.081306 -0.432656 -0.034966
even 0.147866 -0.102195 0.079003 0.206394 0.091835 -0.052258 -0.259577 0.190465 0.132374 -0.267390 0.082798 0.184827 -0.000650 0.165375 -0.064806 0.342170 -0.202143 -0.181217 -0.044843 -0.029956 -0.003928 -0.101259 -0.145029 -0.023517 -0.013601 0.259043 -0.172984 0.071329 0.043389 0.176903 -0.080495 0.059206 0.148140 -0.131616 -0.042686 -0.039122 -0.211011 0.139933 -0.109716 -0.144779 0.161305 -0.335316 0.450005 -0.105203 0.161863 0.046224 -0.050092 0.047904 -0.268120 0.046905 0.240316 0.164562 -0.035461 0.292052 0.003052 0.317310 0.121335 0.217496 0.001676 -0.063530 -0.040662 -0.140979 -0.259281 -0.090576 -0.156531 -0.007612 0.021003 0.293812 -0.141466 0.293386 -0.183534 0.085541 -0.147714 0.122021 0.202219 0.141132 0.174736 0.197966 0.120837 -0.134271 -0.071911 -0.183266 -0.092879 0.013297 -0.203264 0.129577 0.094606 0.171399 -0.201441 0.046973 -0.305907 0.170684 0.069959 -0.096537 0.251583 -0.200470 0.044894 0.082853 -0.012749 -0.154479
kind 0.209338 -0.026435 0.068236 0.136490 -0.187267 0.195177 -0.014591 -0.059048 -0.037366 -0.049123 0.210676 0.025172 -0.015679 -0.169226 -0.029821 0.307798 -0.128596 0.006846 -0.245386 0.177073 -0.087765 0.044804 -0.079352 -0.144091 0.250601 -0.105213 -0.156929 -0.272314 0.250140 -0.217104 0.089739 -0.067307 0.020114 -0.196082 0.140251 -0.124710 0.218578 0.169887 0.076368 0.155970 0.060007 0.155348 -0.051083 0.208930 -0.042419 -0.152837 0.303352 -0.048758 0.162024 0.322904 -0.038452 -0.013000 -0.004407 -0.078504 -0.060768 0.353200 -0.043103 0.290926 -0.182288 0.157980 0.301562 -0.011257 -0.415906 0.212141 -0.330353 0.010528 0.146199 -0.179173 -0.118823 -0.146149 -0.044494 -0.118001 0.267520 0.002959 0.421649 -0.057653 -0.128270 -0.110254 -0.230004 0.043290 -0.257730 0.095618 0.031613 -0.251917 -0.447092 0.277785 0.230416 -0.092006 -0.200109 -0.143633 -0.051048 0.329174 -0.065759 0.126395 -0.080436 -0.187019 -0.112334 0.009905 0.036188 -0.039038
treatment -0.263163 0.046325 -0.174782 -0.001202 -0.084825 0.349352 0.011072 0.279488 0.125384 -0.202906 0.310794 0.100191 0.218964 0.073055 -0.218275 0.118306 0.205604 0.120263 -0.149263 0.026188 0.010386 -0.256697 0.176466 -0.463456 -0.013151 0.227354 -0.164528 -0.081568 0.213357 -0.162387 -0.065238 -0.100614 -0.034194 0.310562 0.002041 -0.196897 0.254165 0.052114 -0.058647 -0.010910 0.321260 -0.071082 0.223638 -0.011369 0.303233 -0.193205 -0.073624 0.154126 0.116291 0.018971 -0.139762 0.072557 -0.133911 0.388213 0.302766 0.304116 0.104616 0.146726 -0.189690 -0.271826 0.244098 -0.254780 -0.118836 0.327952 -0.135149 0.012329 0.024403 -0.087016 -0.295039 0.098495 -0.120198 0.258581 0.239628 0.389100 0.149246 -0.116456 0.108791 0.360015 0.137969 -0.141157 -0.041856 0.192754 0.179322 -0.065807 0.100670 0.174164 0.107462 -0.272445 -0.115882 0.144522 -0.199776 0.083233 0.269420 -0.057843 -0.049257 -0.173381 -0.088522 -0.065907 0.298452 0.086170
day 0.004278 0.177701 -0.079637 -0.096171 0.224470 -0.260723 -0.330220 -0.249506 0.080174 -0.287787 0.191083 0.043218 -0.105400 -0.105065 -0.065337 0.292265 -0.034219 -0.221053 -0.078830 -0.153381 0.061523 0.233255 -0.129380 -0.311698 0.100256 0.186732 -0.004183 -0.019730 -0.066699 0.474915 0.272834 -0.169937 0.037522 -0.097088 -0.056453 0.046299 -0.037565 0.100375 -0.290222 -0.327653 0.135955 -0.176562 0.242785 0.175853 -0.225501 -0.147777 0.013791 0.212375 0.106995 -0.247603 0.174864 0.153224 -0.245665 0.233982 0.318717 0.325813 0.148870 0.119228 -0.272845 -0.005747 -0.369518 0.239024 -0.401618 -0.049242 -0.174069 0.032565 -0.174725 0.081014 0.076739 -0.028282 0.272003 -0.057868 0.056407 0.027863 0.408382 -0.014485 -0.120121 -0.184454 -0.057145 -0.213084 0.084289 0.001476 0.182127 -0.250371 0.117915 -0.030068 0.268940 0.199004 -0.036743 0.268369 -0.215882 0.149150 0.158171 -0.084440 -0.221489 -0.027387 -0.218795 0.392197 0.054647 -0.164100
really -0.062245 -0.046615 -0.016354 0.067615 0.005201 -0.227332 0.045127 0.015600 0.054968 -0.199280 -0.327212 0.061763 0.125149 -0.148495 -0.057916 0.420433 0.049293 -0.162756 -0.213358 0.068064 -0.136362 -0.235265 -0.126434 -0.045318 0.242447 0.303376 -0.234884 -0.206643 0.291631 -0.031247 0.038161 -0.340472 0.160948 0.288131 0.074341 0.098848 -0.021244 0.131601 -0.050912 0.034266 0.241318 -0.172416 0.084160 0.220339 0.161921 -0.376670 0.081167 0.046046 -0.019800 0.121478 0.241564 0.066182 0.390014 -0.371282 -0.038422 0.553695 -0.114485 0.125156 -0.136065 -0.088634 -0.003146 -0.068227 -0.194241 0.003093 -0.329390 -0.028698 0.194954 -0.121551 -0.105491 0.027572 -0.247364 0.049928 0.171084 -0.039966 0.077174 -0.050015 0.047503 0.104140 -0.266513 -0.161631 -0.261191 0.071459 -0.152558 -0.102926 -0.113640 -0.067507 0.175378 0.109098 -0.286216 0.202589 0.018996 0.189163 -0.022244 -0.081594 -0.209221 -0.202146 0.087131 0.082332 -0.146265 -0.041091
pain -0.185228 0.440490 0.003353 -0.170237 0.195434 -0.191356 -0.257847 -0.103422 0.638919 -0.056856 -0.076768 0.297906 0.005061 -0.157505 -0.105060 0.108879 -0.288143 -0.062755 0.016753 -0.267149 0.101265 -0.149391 -0.148481 -0.445607 -0.162257 0.297421 -0.125697 0.121186 -0.086998 0.341532 0.207921 -0.109556 -0.275298 -0.225657 -0.001587 0.024907 0.404017 0.059037 0.134285 -0.289547 0.102082 0.474986 0.361302 -0.308091 0.020163 -0.097273 0.271869 -0.171374 -0.358560 -0.333077 -0.179839 0.225472 0.172396 0.022110 0.212537 -0.101082 -0.051252 0.201138 -0.184387 0.131867 -0.196384 0.241688 -0.111799 -0.162342 -0.285317 0.082756 -0.364586 -0.127124 -0.260092 0.047243 0.099597 0.045631 0.114737 0.237295 0.214393 -0.063974 0.009513 0.633004 -0.150546 0.044365 -0.002416 -0.010954 0.402076 -0.194691 0.119949 -0.435575 0.302800 -0.263258 -0.108956 0.202727 -0.357643 -0.151610 0.298103 0.138060 -0.043719 -0.500607 -0.449973 -0.135477 -0.184052 -0.285296
helpful 0.184328 0.265134 0.206849 -0.204366 -0.027694 0.082927 0.296606 -0.447351 -0.095281 -0.105992 0.164665 0.139377 -0.174861 0.476667 -0.053228 0.240648 -0.083064 -0.152136 -0.135338 -0.333727 0.171855 -0.144488 0.061867 -0.029388 0.131231 0.117674 -0.077214 -0.106839 0.347775 -0.250577 0.185405 -0.050315 0.093717 0.170404 -0.030759 0.041889 0.126025 0.103826 -0.052038 -0.029594 -0.031823 -0.026162 0.342437 0.117757 -0.000590 -0.000072 0.155058 -0.106623 0.090740 0.393446 -0.008002 0.242277 -0.249074 -0.004333 -0.161258 0.356391 0.282880 0.111507 -0.045253 0.124697 0.203273 -0.012648 -0.053842 0.302695 -0.235511 -0.176163 0.086362 -0.091301 -0.084224 0.019895 -0.178301 -0.016524 0.367653 -0.040145 0.387992 -0.029399 -0.384524 -0.205364 -0.075570 -0.018532 -0.283365 0.070483 -0.050676 -0.392217 -0.239916 0.110338 0.326837 -0.234260 -0.262346 -0.312203 -0.267637 0.215943 0.018600 0.144456 -0.191597 0.118634 -0.253592 0.143942 0.116652 0.286459
excellent 0.243694 -0.027157 0.267511 0.030812 -0.040790 0.068936 0.021346 -0.247100 0.054965 -0.236169 0.030011 0.238718 -0.060173 0.063669 0.074650 -0.101586 -0.346996 -0.179778 -0.450094 -0.106063 -0.258668 0.265949 0.011118 -0.148183 0.395289 0.218010 0.143315 -0.022466 -0.031779 -0.377768 -0.075291 -0.369143 0.123948 0.003190 0.003771 -0.049016 0.110884 -0.116037 0.301867 0.243334 0.008566 0.405051 0.174840 0.127293 0.282945 -0.023371 0.412668 -0.041056 -0.044955 0.322112 -0.121646 -0.003865 -0.185032 0.016009 -0.269811 0.432751 0.223788 0.148044 -0.414895 -0.071476 0.243543 0.242225 -0.030119 -0.105220 -0.235560 -0.143269 0.337324 -0.096693 -0.206226 -0.067528 -0.227109 -0.026335 0.054208 0.351714 0.239953 0.184778 0.117265 -0.296650 -0.397792 0.257918 0.047116 -0.146850 0.280527 -0.311129 -0.090228 0.127888 0.186464 -0.001587 -0.237590 -0.015171 0.124623 -0.051715 0.209347 -0.033263 -0.004823 -0.296041 -0.325730 0.210260 0.022776 0.136863
need -0.295099 0.223742 -0.045564 -0.112111 -0.105103 0.071537 -0.080041 0.029363 0.016845 -0.475219 0.113197 -0.079493 -0.109900 0.140632 0.143833 0.113560 -0.064482 0.139287 -0.029769 0.127753 -0.156539 -0.003833 -0.304197 -0.162752 0.037736 0.100496 -0.079587 -0.209735 0.051966 -0.051643 0.086793 -0.071182 -0.086042 -0.073579 0.040963 0.003949 0.116344 0.079509 -0.164271 0.032029 0.297407 0.118608 -0.082715 0.088070 0.085178 -0.134458 0.351237 -0.097145 -0.099062 -0.023277 -0.065278 0.010276 -0.132765 0.097354 -0.180051 0.051591 0.185162 -0.014597 -0.184274 0.122826 -0.112755 -0.152691 -0.206937 0.141044 -0.163387 0.167407 -0.167146 0.149800 -0.005310 0.061371 -0.047596 0.183442 0.237277 0.413632 -0.101944 0.068993 -0.160629 -0.139810 -0.105552 -0.176373 -0.463242 0.101465 0.004232 -0.463410 -0.179182 0.159046 0.082243 0.421767 -0.053974 -0.037908 -0.190247 0.163554 0.251330 0.024677 0.114748 -0.138089 -0.049243 0.318776 -0.141839 -0.119951
made -0.021916 0.162617 -0.277594 0.212175 -0.064276 -0.425959 -0.093779 -0.094850 0.008850 -0.109923 0.017235 0.213851 0.151809 -0.103583 0.045506 0.435796 0.139841 -0.114215 -0.140731 -0.031090 0.044889 -0.334390 -0.015024 -0.408909 0.053008 0.241102 -0.077718 -0.149794 0.262740 -0.012427 0.191913 -0.164992 0.283902 -0.088606 0.102791 0.013928 0.017546 -0.079206 -0.194663 -0.430256 -0.102246 -0.377680 0.440833 0.064229 0.251848 0.264128 0.142945 0.055860 -0.128759 0.320329 0.016852 0.255217 -0.390915 -0.078985 0.216205 -0.118924 -0.362332 -0.007216 -0.150851 -0.122422 0.192895 0.069341 -0.015911 -0.147942 -0.279491 0.113047 0.201411 -0.024062 0.052039 0.123547 -0.075331 0.188254 0.219349 0.082779 0.287890 0.016293 -0.154215 -0.084390 0.042264 -0.359989 -0.305412 0.453293 0.115322 -0.074041 0.153937 0.258611 -0.101677 -0.069840 0.181619 -0.033771 -0.110502 -0.085798 -0.016496 0.014241 0.332738 -0.286466 0.010812 0.053515 -0.058574 0.120333
amazing -0.193146 -0.334623 0.004884 0.316317 0.047175 -0.048278 -0.026515 -0.162069 0.256268 -0.157907 -0.025654 0.128090 -0.063387 -0.065727 0.262308 0.111259 -0.314490 -0.215972 -0.326219 0.154872 -0.078936 0.096066 0.248309 -0.264175 0.362779 0.186557 0.093804 -0.076055 -0.240775 -0.351415 -0.088206 -0.071255 0.062666 0.109531 0.185972 -0.147085 0.018694 -0.110574 0.156857 -0.118480 -0.018471 0.004449 0.123834 0.258241 -0.211003 -0.086680 0.319368 -0.041309 -0.122351 0.123818 0.161463 0.172049 0.026818 -0.232599 -0.023964 0.329530 0.153505 0.385036 -0.356925 -0.035238 0.060208 0.182982 -0.118105 -0.250557 -0.187089 -0.201609 0.341672 -0.200593 -0.117716 0.055918 0.133383 0.233727 0.102888 0.040915 0.405431 0.036848 -0.280070 -0.112424 -0.234231 0.014768 -0.021101 0.326069 0.128690 -0.245331 -0.288347 0.044106 0.285251 0.099487 -0.285987 -0.122634 -0.134066 0.199916 0.111499 0.146482 0.133812 -0.376877 -0.135408 -0.243222 0.245251 0.394551
visit 0.079275 0.218376 -0.218652 -0.104878 -0.204183 -0.193929 -0.107534 -0.119825 0.132830 -0.122428 0.119504 0.521617 -0.281715 0.104047 0.030276 -0.087624 0.073091 0.133725 -0.370742 -0.312447 0.064574 0.109222 -0.350643 -0.230430 0.165508 0.104627 0.052374 -0.456878 0.230427 0.029542 0.170193 -0.024067 0.202824 0.242051 0.123298 -0.326770 0.222373 0.217093 -0.193625 0.020503 0.077336 -0.354369 0.183959 0.171510 -0.322012 0.094951 -0.056320 -0.129477 0.018025 0.010314 -0.166790 0.174989 -0.108147 0.063010 0.138853 0.014050 -0.092063 0.274918 -0.242474 -0.238445 -0.293633 -0.118602 -0.144508 -0.230694 0.053837 -0.027461 0.012121 0.126909 -0.375288 -0.002832 -0.132859 0.102279 -0.019838 -0.142314 0.247244 -0.084596 0.122146 -0.192178 0.121183 -0.397742 -0.287875 -0.130871 0.094309 -0.127919 -0.058697 0.138344 0.035049 0.073989 0.186462 -0.220225 -0.354201 0.088844 0.134436 0.304042 -0.084690 -0.114558 -0.455428 0.112154 0.028312 0.081290
procedure -0.335402 -0.037416 -0.167672 0.120828 0.060450 -0.078450 0.076421 -0.465230 0.253318 -0.225264 0.277446 -0.234065 0.095140 0.124004 0.018370 0.169598 0.099878 0.038957 -0.432929 0.058490 -0.149448 -0.213379 -0.238387 -0.297872 -0.139314 0.023673 -0.145106 -0.080374 0.465657 -0.135583 0.000445 -0.089799 0.222967 0.043046 0.327954 -0.174853 0.120582 0.109987 -0.069083 -0.062521 -0.410026 -0.089355 0.408986 -0.311586 0.131160 -0.264301 0.190626 -0.120955 0.118309 -0.043497 -0.018452 0.140447 -0.253643 -0.027974 0.228128 -0.095837 0.123181 0.803260 -0.234445 -0.068529 0.021778 -0.030833 0.002030 -0.326913 -0.122912 -0.007239 0.006671 -0.086960 -0.221941 0.027183 -0.424594 -0.114206 -0.280471 0.332826 0.432527 0.141420 0.050747 -0.352574 0.264163 0.072929 0.042082 -0.058021 0.174337 -0.084460 0.031775 0.346581 0.194689 -0.401906 0.131069 0.200149 0.112044 -0.335669 0.045611 0.174345 0.006636 -0.365952 -0.554356 0.054158 -0.025232 -0.092071
life -0.350257 0.022844 -0.226155 -0.212651 -0.100013 0.205868 0.188923 0.030194 0.250825 -0.190142 -0.162160 0.221172 -0.038669 -0.155188 -0.094181 0.437861 -0.210967 -0.068902 -0.157347 0.415851 0.018234 0.070732 -0.310716 0.094649 0.219718 0.371313 0.363418 -0.283620 -0.047512 -0.217180 0.272017 0.266475 -0.252327 -0.039761 0.039845 -0.209621 0.057164 0.176602 -0.211144 -0.077672 -0.132012 0.341486 0.152997 0.062314 0.160973 -0.206161 0.025451 0.102084 -0.143280 -0.210428 -0.164176 0.196087 -0.263235 0.207510 0.397530 0.327413 -0.123356 0.580432 0.034376 0.371636 -0.108140 0.080165 0.073520 0.200773 -0.143582 -0.003617 -0.214635 0.113819 -0.060173 -0.262003 0.374869 0.294713 0.173690 0.019662 0.311403 0.282008 -0.125526 0.443949 -0.330412 -0.173500 0.158261 0.066719 -0.040476 -0.043432 0.002675 -0.168152 -0.030502 -0.055220 -0.104799 -0.447596 0.039168 0.450969 0.179042 0.036574 0.111756 -0.495493 -0.176800 0.024958 -0.304761 0.160905
went 0.069468 0.104506 0.172801 -0.116716 0.089786 -0.162583 0.307588 -0.085726 0.305639 0.047317 -0.183714 0.052281 0.074552 -0.153407 -0.187284 0.293624 0.028778 -0.185733 -0.329491 0.074001 0.110415 0.121478 -0.336679 -0.304935 -0.187531 0.191107 -0.327522 0.166158 0.093266 0.039453 0.177980 -0.006115 0.117245 0.119247 0.084577 0.012633 -0.015520 0.123716 -0.186245 -0.204267 -0.018233 -0.043765 0.353837 -0.045509 -0.046146 0.015245 -0.334835 0.144258 -0.274034 0.191693 0.086747 0.236361 0.052524 0.056688 0.123684 0.296219 0.172991 0.197339 -0.285762 -0.059303 0.316055 0.165887 -0.186572 -0.158325 -0.118020 -0.076344 0.181685 0.041594 -0.414026 -0.035791 0.141271 0.222681 0.151793 -0.156615 0.271021 0.127216 -0.001765 -0.078953 0.071257 0.051888 -0.097474 -0.061727 0.120590 -0.451637 0.047462 0.202554 0.154188 0.368051 0.207577 0.148919 -0.010021 -0.217412 0.083194 -0.140175 0.055898 -0.183418 -0.266962 -0.119819 -0.144503 -0.134253
family -0.124802 0.132473 -0.487496 0.141535 0.324765 -0.171273 0.017239 -0.001908 -0.235695 -0.246356 0.215844 0.417883 -0.191971 -0.075982 -0.052152 0.326640 -0.184721 0.078447 0.207765 0.083307 -0.250080 0.251888 -0.239154 0.004455 0.311491 0.452953 0.057671 -0.241166 -0.001576 -0.115043 0.327708 -0.200182 -0.022469 0.028879 -0.028784 -0.066136 -0.011798 0.242597 0.206621 -0.009316 -0.122030 -0.251982 -0.268295 0.046827 0.047293 -0.018482 0.466613 -0.407387 0.151643 0.192462 0.106747 0.141325 -0.287325 0.152869 0.197477 -0.095759 0.162195 -0.073652 -0.115448 0.085732 0.190467 0.311525 0.032023 0.233202 -0.141412 -0.181506 0.422891 -0.164286 -0.194836 0.004924 -0.049685 0.477969 0.288361 0.105367 0.410412 0.172082 0.014978 0.115648 -0.135470 -0.089061 -0.125678 -0.057231 -0.101416 -0.042962 -0.394167 0.183933 0.370436 -0.040250 0.049003 0.193329 0.115461 0.062830 0.396841 0.151134 -0.098719 -0.271893 -0.040037 -0.167666 0.266710 0.182347
result -0.139171 -0.233651 0.015933 0.016412 -0.036835 -0.222188 -0.077425 0.284746 0.176246 -0.053028 -0.004150 0.068727 -0.379209 0.214099 -0.030960 0.115194 0.080622 -0.028874 -0.387273 -0.024732 0.144340 -0.310332 -0.043614 -0.442723 -0.066293 0.117078 -0.083351 0.038764 0.283209 0.247434 -0.023308 0.166841 0.167824 0.354450 0.148848 -0.271049 0.137777 0.038569 -0.073208 -0.352653 0.170712 -0.081152 -0.169575 0.131110 0.125682 -0.485430 -0.045161 -0.216491 -0.108084 0.071720 -0.137914 0.195677 -0.014921 -0.038737 0.042335 0.357121 0.371714 0.379757 0.140238 -0.060290 0.209061 -0.276703 -0.191042 -0.385405 -0.065586 0.229652 0.061605 0.221010 -0.096055 0.177826 -0.106931 0.145864 0.061623 0.270522 0.356270 -0.359561 -0.273843 -0.005032 0.046069 0.177740 -0.254522 -0.282856 0.173915 -0.251416 0.162953 0.172752 0.219341 0.272268 0.006099 0.471746 -0.016704 -0.314442 0.045043 -0.187543 0.085832 -0.304885 -0.395648 -0.027218 -0.063621 0.141431
could -0.109580 0.104133 -0.146300 0.116062 0.017878 -0.129950 -0.139952 0.047611 0.304137 0.163693 0.076302 -0.100071 0.214753 0.148747 0.424733 0.361308 -0.378018 0.165982 0.224590 0.296038 -0.173240 -0.213514 -0.127475 -0.043569 -0.289563 0.050419 -0.320056 -0.244151 0.371651 0.074011 0.215895 -0.295132 0.228504 0.038038 0.059331 -0.263594 0.119955 0.008397 0.010439 0.010481 0.166401 -0.223361 0.138687 -0.086555 0.023897 -0.014687 0.317186 -0.048231 -0.004490 0.080665 -0.071010 0.032109 -0.071872 0.197739 -0.088287 0.269109 -0.109199 0.181128 -0.090485 0.136838 0.184924 0.143950 -0.254026 0.053222 -0.037792 0.204306 -0.033892 0.075234 0.001831 0.143715 0.035872 0.263341 0.125674 0.171822 0.280342 -0.150099 0.126431 0.047485 0.061510 0.067288 0.167961 -0.138395 0.148674 -0.265848 0.178870 0.096867 0.100975 0.214212 0.090569 -0.142328 -0.104018 -0.141750 0.174997 -0.244376 -0.042332 -0.262168 -0.208135 -0.046042 -0.144558 -0.168375
help 0.106506 0.213553 -0.085365 0.002427 -0.133730 -0.172126 0.416998 0.075088 0.054498 -0.107941 -0.149276 0.138731 0.157908 -0.168281 0.147303 0.277536 -0.044044 -0.010796 0.073189 0.018453 0.113622 -0.295454 -0.285044 -0.193663 -0.003685 0.276373 -0.110921 -0.108165 0.245214 0.072523 -0.053620 0.022257 -0.027189 0.199344 0.223189 -0.021252 -0.078262 0.012329 0.074880 -0.069343 0.158368 0.183353 0.389631 -0.046816 0.140860 -0.163504 0.002727 -0.019067 -0.141417 -0.040974 -0.034237 0.159665 -0.092707 0.106610 -0.000329 0.356161 0.305766 -0.002113 0.019572 -0.082330 0.037212 -0.040871 -0.028752 0.544760 -0.168675 -0.408299 -0.409267 0.258542 -0.103481 0.154055 -0.103911 0.203981 0.202919 0.122597 0.268640 0.170179 -0.059855 -0.021184 -0.286793 0.029427 -0.318575 0.177404 -0.012502 -0.048895 0.044812 -0.239137 0.458583 -0.251853 0.025051 -0.065686 -0.133041 0.226783 0.017397 0.057039 0.062692 -0.084928 -0.222896 -0.341992 -0.247362 -0.159969
thank -0.087593 0.098738 -0.245723 0.192258 0.039199 0.180480 0.249444 -0.208624 0.014617 -0.064212 -0.036526 0.089135 -0.200656 -0.198915 0.258710 0.266999 0.029013 0.247490 -0.274175 0.207452 -0.318036 0.023328 0.040040 0.101175 0.434582 0.159446 -0.056496 0.021043 0.281110 -0.447622 0.197255 -0.210873 -0.180794 0.230818 0.340459 -0.116377 0.074087 0.010688 -0.099223 -0.061452 -0.042795 -0.019071 0.406461 0.355231 0.093175 0.042519 0.017178 -0.208282 -0.298201 -0.028098 -0.352204 0.309662 -0.052173 -0.096690 0.106843 0.224948 0.444291 -0.080589 -0.030307 0.323952 -0.007048 0.275751 0.254286 -0.143104 -0.297065 0.194921 -0.022940 0.150526 0.121187 -0.112907 0.223249 0.156723 0.184512 0.035843 0.149334 0.210564 -0.364661 0.209917 0.026917 -0.294652 -0.067144 0.309674 0.288537 -0.209650 -0.207805 -0.242041 0.180768 -0.241489 -0.214020 -0.038373 0.189725 0.091542 0.408665 -0.037802 0.571246 -0.453122 -0.350290 -0.240323 -0.124088 0.414182
friendly 0.153342 0.406001 0.306239 0.028748 -0.118712 0.067665 0.098299 -0.224201 -0.012643 -0.081684 0.164755 0.183787 -0.099810 0.033262 0.155888 0.205220 -0.195291 -0.123183 -0.233363 -0.470767 -0.154105 -0.085309 -0.161281 -0.003961 0.282282 0.263695 -0.276443 -0.190804 0.026234 -0.258413 -0.233132 -0.295875 -0.013359 0.177288 0.153165 -0.079425 0.032340 -0.133910 0.116347 -0.036551 -0.070368 0.059819 0.172566 0.416827 -0.107666 -0.154894 0.380170 0.014377 0.111126 0.524805 -0.058835 0.039750 -0.266747 -0.380383 -0.056114 0.287144 0.202410 0.623727 -0.264611 -0.013351 0.154649 0.025934 0.006796 0.111857 -0.044427 -0.159258 0.065725 0.051054 -0.153531 -0.030780 -0.268885 -0.137219 0.095615 -0.039574 0.502759 -0.191923 -0.478150 -0.255771 0.018245 -0.166618 -0.312002 0.019632 0.025623 -0.130404 -0.186729 0.254886 0.106353 -0.274536 -0.007025 -0.135811 0.033942 0.126078 0.063957 0.023248 -0.087220 0.053490 -0.179172 -0.168768 0.138604 0.430264
ever 0.068236 -0.002320 0.135703 0.149018 -0.058956 0.009760 -0.340193 0.311904 0.115841 -0.147522 0.122357 -0.041114 -0.021157 0.050028 -0.206265 0.432602 -0.115269 0.137543 0.214277 0.107054 -0.305172 0.303881 -0.093553 -0.101694 -0.021250 0.147452 0.028632 -0.284219 0.100511 -0.279697 0.124431 0.142322 -0.117166 -0.051977 0.051676 -0.454074 -0.046237 0.171681 0.183546 0.012644 0.211045 0.315157 0.223585 0.077269 0.054672 -0.005520 0.244819 0.157251 -0.226498 0.096689 0.144341 -0.054805 -0.264838 -0.463093 -0.393969 0.344043 -0.022260 0.094376 -0.332813 0.373455 0.055674 -0.229700 -0.201059 -0.060519 -0.268819 0.169684 0.209315 -0.292868 0.198312 0.178421 -0.294034 0.265930 0.318125 -0.036927 0.362256 0.180192 0.083142 0.231547 -0.285541 0.158777 0.134983 0.027128 -0.332586 -0.275802 -0.369639 -0.152721 0.075378 0.196967 -0.011748 0.024707 -0.185718 0.216326 0.151570 0.069151 -0.336134 -0.513702 -0.133430 0.067651 -0.273230 0.067501
work -0.041419 0.127225 -0.328120 0.568543 -0.009432 -0.094154 -0.026136 0.051116 0.089514 -0.329414 0.102408 -0.007259 0.050851 0.187703 -0.251297 0.292439 -0.126351 -0.149265 -0.257910 -0.170570 0.017242 -0.205184 -0.035736 0.063983 0.104638 0.347617 -0.261644 -0.214317 0.228150 -0.157805 -0.056644 -0.033732 -0.010514 0.121305 0.210331 0.078646 -0.093027 0.049221 -0.046612 -0.335503 0.285838 0.081058 -0.177767 -0.032676 -0.069949 0.294878 0.106271 -0.295560 0.233948 -0.010495 -0.116526 0.086802 -0.041691 0.067790 -0.052615 0.415707 0.343482 0.237434 -0.051368 -0.084428 0.104834 -0.246567 -0.117800 -0.110241 0.002456 -0.091229 -0.096003 0.277866 -0.111654 0.032058 -0.068504 -0.300339 0.162018 0.162167 0.130517 -0.029733 0.351420 0.195444 -0.119217 0.088822 -0.036497 -0.332837 0.314665 -0.254359 0.170107 0.006833 0.450877 0.117110 0.075073 0.056056 0.072078 0.055407 0.226800 -0.132349 0.250251 -0.214010 -0.029231 -0.000932 -0.087770 0.075879
problem -0.167445 0.060484 0.117986 -0.088102 0.242914 -0.126191 0.096456 -0.410951 0.082900 -0.065146 -0.005614 0.287074 0.237130 0.076687 -0.310714 0.377530 -0.140803 0.165285 0.030130 -0.164840 -0.193424 -0.031096 -0.295274 -0.418395 -0.006659 0.201080 -0.022859 -0.266532 0.003652 -0.366000 0.069441 -0.067588 -0.044623 -0.199764 0.167673 0.210005 0.207532 -0.180496 0.117429 0.319708 0.406719 0.217220 0.146003 -0.087517 0.132836 -0.211808 0.069931 0.066155 -0.042811 -0.055526 0.090537 0.134751 0.073288 0.134672 -0.275197 0.393869 0.228615 0.029749 0.040136 -0.201851 0.187235 -0.032719 0.087463 -0.095938 -0.357605 -0.013981 -0.247084 0.218071 -0.308305 0.480246 -0.236519 -0.089070 0.010273 0.099100 0.335007 -0.185539 -0.111839 -0.057722 0.198221 -0.125657 -0.429299 -0.169054 -0.041403 0.009252 0.086311 0.055429 0.027319 0.124534 0.159178 -0.052097 0.037241 -0.087133 0.465513 0.202117 0.152375 -0.160125 -0.350576 -0.335682 -0.185935 -0.131867
much -0.326724 0.097000 -0.137504 -0.171057 -0.032697 -0.213181 0.027004 -0.235744 0.345926 -0.199152 0.022275 -0.132540 -0.217452 -0.325627 0.122425 0.241811 0.103266 0.172184 -0.104909 0.120834 -0.009680 0.006214 -0.320901 -0.218861 0.174558 0.055374 -0.164998 -0.271128 0.112167 -0.296814 -0.051527 -0.085895 -0.006763 0.083290 0.211637 -0.050115 0.264618 -0.064975 -0.261680 -0.151800 0.225990 -0.273245 0.263093 0.179203 -0.005402 -0.429799 -0.046604 0.090978 0.005876 0.135691 0.168352 0.304588 -0.139617 0.076832 0.056751 0.361977 0.187988 -0.193792 0.256221 -0.050903 0.042761 -0.058782 -0.297189 -0.226273 0.022788 -0.135953 -0.041883 -0.106030 0.006201 -0.031973 0.039977 0.065657 0.171849 0.163599 0.046941 0.164598 -0.151026 0.147943 -0.381180 0.047413 0.352291 -0.084042 -0.113498 -0.167247 0.035604 -0.111894 0.183516 -0.373640 -0.299712 -0.123816 -0.159839 0.130645 0.300641 -0.115212 -0.081380 -0.345657 -0.040153 -0.082813 -0.061959 0.119395
going -0.163067 0.053516 0.098675 0.199648 0.025433 -0.127415 -0.190556 -0.059463 0.098161 0.027009 -0.024842 0.104473 0.070014 -0.079207 -0.321371 0.277714 0.010562 -0.098390 -0.162226 0.206630 -0.234682 -0.103030 -0.378194 -0.411504 0.068968 -0.001357 -0.254533 -0.258243 0.204818 -0.104168 0.194399 -0.183470 0.236835 0.011878 0.346284 -0.107795 0.193112 0.116950 0.098406 -0.014963 0.245198 -0.207228 0.342515 -0.175835 0.158479 0.126990 0.072163 -0.023394 -0.278224 0.181935 -0.055842 0.128777 -0.058704 -0.001206 0.027560 -0.102440 0.043928 0.092855 -0.082968 0.201272 -0.109237 -0.150315 0.082987 0.128727 0.149832 0.031884 0.043185 0.255164 -0.366082 0.173420 -0.035374 0.078046 0.107447 -0.086345 0.179385 0.108781 0.149008 0.149166 -0.086182 -0.290140 -0.203588 0.228538 -0.101164 -0.460387 -0.158666 0.125217 -0.049582 0.060420 -0.218321 0.100593 -0.089864 -0.150608 0.228141 -0.124940 -0.010216 -0.036844 -0.086642 0.140853 0.182479 -0.045478
u 0.018680 -0.152255 -0.004806 0.113724 -0.083821 -0.139005 -0.327924 -0.272490 0.084188 -0.047835 0.184644 0.062649 0.065046 -0.348277 0.068691 0.346194 -0.032030 0.197689 -0.016550 -0.207267 -0.119842 0.026807 0.026958 -0.009166 0.303395 0.370862 0.024053 0.086283 0.188176 -0.053655 0.526156 -0.238863 0.031098 -0.071291 0.053156 -0.164852 -0.170257 0.154501 0.051202 -0.103493 -0.111131 -0.328734 0.485586 -0.051254 -0.183765 0.246636 -0.134629 -0.098323 -0.162182 0.210580 -0.073533 0.384518 0.097866 0.293434 0.099887 0.322422 0.065300 0.133512 0.115436 -0.568181 -0.082664 0.004545 -0.539629 0.550439 -0.231529 -0.226302 0.244837 0.496100 -0.004715 0.099787 -0.096824 0.141544 0.132985 0.239009 0.095899 -0.119659 0.291973 -0.021488 0.022818 -0.325539 -0.396701 0.118759 0.046569 0.065028 -0.237046 0.151453 -0.045593 -0.082290 0.005262 0.028797 -0.356201 0.134393 -0.064292 -0.078207 0.110691 -0.081110 -0.218420 -0.354636 -0.157611 -0.004256
issue 0.062001 0.120023 -0.058193 0.059181 0.134122 -0.073740 0.324016 0.342582 0.001040 0.026210 -0.051029 0.354744 0.007797 0.074101 -0.297372 0.054202 -0.086119 0.108435 -0.072152 0.004687 -0.362592 0.040294 -0.179188 -0.398761 0.070735 0.292038 -0.213987 -0.373866 0.079726 -0.479313 0.126226 -0.345108 -0.066339 -0.120493 0.118734 -0.029699 0.105210 0.121202 0.058960 0.035521 0.145102 0.199356 0.274210 -0.003638 -0.076610 -0.202360 -0.131356 0.053337 -0.085850 -0.226209 -0.006635 -0.261755 -0.058908 -0.019797 -0.053775 0.252354 0.077466 0.108489 0.145865 -0.281102 0.148272 0.121701 -0.142185 0.083091 -0.266219 -0.165404 -0.350160 0.021512 -0.267316 0.418607 -0.304315 0.049021 0.254055 0.153887 0.296161 -0.032113 -0.080358 0.016497 -0.033722 -0.251726 -0.107247 -0.194533 0.063942 -0.206966 -0.078252 -0.026071 -0.024145 0.097630 -0.043236 -0.228260 -0.072883 -0.001382 0.342834 0.378383 0.006628 -0.119678 -0.288548 -0.127576 -0.376486 -0.156576
told 0.147301 0.063754 -0.150281 0.093680 0.007042 -0.182139 -0.060309 -0.002575 0.201643 -0.076575 -0.231804 -0.067280 0.080481 0.109361 0.057480 0.141276 0.166633 0.019973 0.307892 0.160540 -0.016395 -0.024364 -0.187978 -0.079096 -0.171672 0.179297 -0.208960 0.026694 -0.073442 0.175144 0.195387 -0.004732 0.100313 0.044338 -0.185120 0.068882 0.091876 0.066181 0.001588 -0.153868 0.475986 -0.624391 0.395524 -0.116443 -0.044961 0.211490 -0.302916 0.288413 -0.201735 -0.348204 0.350196 0.060964 -0.029013 0.337066 -0.324819 0.298436 0.193430 0.299889 -0.460353 -0.080265 -0.118543 -0.069679 0.240062 -0.139554 -0.121509 -0.046931 0.054294 0.158841 -0.279136 -0.242451 0.124172 0.143084 0.081386 0.177884 0.431305 0.003507 -0.009103 0.062080 0.054331 -0.616903 0.062953 -0.239028 0.122392 -0.212113 0.038274 0.236306 0.155265 0.300984 0.196430 -0.205583 -0.008245 -0.209391 0.041549 -0.317734 -0.108062 -0.349808 -0.167060 0.234988 -0.358781 0.128380
found -0.056068 0.063991 -0.146215 -0.174492 -0.089549 0.023009 -0.048647 0.106489 -0.070334 0.138320 -0.461405 0.137059 -0.103157 -0.054342 -0.247349 0.184808 -0.357678 0.129002 -0.256193 0.089336 -0.057921 -0.056672 0.015249 -0.291924 -0.024248 0.247600 -0.342734 0.034770 0.158623 -0.166901 0.313104 -0.017363 -0.117738 -0.037405 0.173456 -0.243271 0.295927 -0.471953 -0.132460 0.149420 0.002095 0.116704 0.100837 -0.380275 -0.128976 -0.091546 0.158804 -0.074240 -0.181909 0.164171 0.229991 0.269561 -0.018774 -0.143423 -0.150687 0.252018 0.080179 0.000282 -0.281862 -0.175911 0.469631 0.241319 -0.099663 -0.044285 -0.295372 0.197305 -0.087395 0.127296 -0.054082 -0.128630 0.023289 0.068799 0.236829 -0.083618 0.339660 0.080910 -0.107742 0.245243 -0.262960 -0.220395 -0.162094 -0.133701 0.004027 -0.117767 0.449775 0.562910 0.086197 0.051115 0.021053 -0.206705 -0.037037 0.127242 0.090070 0.038409 -0.221520 -0.318426 -0.120194 0.153900 -0.264557 0.193757
wonderful 0.053553 -0.118724 -0.007967 0.124125 0.342081 -0.010530 -0.145095 -0.191448 0.120343 -0.211439 -0.269490 0.111717 -0.062061 -0.217012 0.277259 -0.076155 -0.224411 -0.014925 -0.314016 0.143570 -0.152675 0.179093 0.160661 0.061260 0.413038 0.142262 0.121746 -0.512165 -0.075056 -0.339289 -0.045232 -0.202218 0.181018 0.229588 0.032980 -0.151422 0.079437 -0.018152 0.292353 -0.034285 -0.039160 -0.009033 0.045171 0.101471 -0.144710 -0.104952 0.556386 0.053687 -0.124015 0.138164 -0.201576 0.133472 0.090651 -0.154793 0.022689 0.506856 0.163544 0.354454 -0.257480 -0.097486 0.145842 0.056855 -0.350235 -0.078989 -0.233417 -0.026996 0.155799 0.028536 0.089840 -0.018579 -0.147749 0.241665 0.191381 0.131174 0.240411 -0.112059 -0.351256 -0.111436 0.004033 0.107632 -0.048871 0.256883 -0.066223 -0.343381 -0.186711 0.061189 0.194682 -0.169028 -0.256794 -0.528749 -0.059434 0.134627 0.082292 0.210620 -0.042658 -0.314912 -0.263483 0.031971 0.285538 0.077947
concern 0.009642 0.257372 0.186663 -0.068696 0.003658 0.120797 0.292309 0.176098 0.118099 -0.011388 -0.307148 0.320009 0.004061 -0.099544 -0.362802 -0.088768 -0.368909 0.331677 -0.243710 -0.153664 -0.159823 0.023436 -0.133747 -0.264621 0.115396 -0.009213 -0.298606 0.037834 0.266684 -0.086106 0.044314 -0.189682 -0.027884 -0.154353 -0.049922 -0.025192 0.016459 -0.131367 0.064653 -0.173462 -0.231103 -0.256803 0.162436 0.411307 -0.329356 -0.313686 0.225370 -0.323495 0.123161 0.031677 0.170284 -0.050460 -0.103393 0.180668 0.004933 0.324607 0.338978 0.070034 -0.163314 -0.217888 0.056377 -0.159844 -0.128411 -0.000616 -0.535633 0.208118 0.378374 -0.227485 -0.426851 0.142243 -0.482470 0.016312 0.158045 0.421930 0.192001 0.164207 0.019965 -0.074297 -0.301009 -0.332947 -0.371399 -0.002419 0.067868 -0.006161 -0.294997 0.000025 -0.160533 0.033012 -0.351798 0.120632 -0.207200 0.179391 0.180448 0.218043 -0.023071 -0.025599 -0.004507 0.072176 -0.233295 -0.068199
say 0.139131 0.121240 0.049043 0.118483 -0.175778 -0.154320 0.013686 -0.009229 0.310198 -0.021815 -0.042165 -0.005815 -0.211978 0.037479 0.130240 0.162910 -0.198953 -0.270895 -0.275453 0.189345 -0.148649 0.264761 -0.016665 0.258678 0.028769 0.092640 -0.350322 -0.175682 0.245084 -0.087878 0.153423 -0.101498 0.014611 0.227715 -0.094876 -0.154058 0.314881 -0.557189 0.301023 -0.237517 0.296994 0.055206 -0.157870 0.193738 -0.129169 -0.077256 0.058613 0.256334 -0.440528 -0.163020 0.345853 0.000248 -0.038994 -0.293849 -0.024115 0.317183 0.253335 0.363697 0.042921 -0.039902 -0.050919 -0.253694 0.088905 0.170697 -0.176586 0.208231 0.015233 -0.110692 -0.055659 0.014030 -0.011318 0.108926 -0.295591 -0.097128 0.668519 0.242703 0.066329 0.282249 -0.171222 -0.093253 0.087807 -0.053647 0.136430 -0.091757 -0.103133 0.231224 0.122269 0.072380 -0.175836 0.335957 -0.369030 0.094217 -0.255552 0.160122 0.118578 -0.355390 -0.121337 0.078897 0.127062 0.463493
anyone -0.144418 0.454675 0.082436 -0.285945 -0.146880 -0.042229 -0.011715 0.218184 -0.467536 -0.232360 -0.400188 0.268800 -0.056220 -0.004519 0.173736 0.099622 -0.186424 0.073092 0.072939 0.667292 -0.115154 -0.023736 -0.648002 0.131535 0.219407 0.126103 -0.398772 0.111362 -0.162498 -0.338610 0.006005 -0.284850 -0.134195 0.021211 0.115307 0.003040 0.123869 -0.020013 0.170561 0.256968 0.138119 0.023600 0.114917 -0.151538 0.283019 -0.351268 0.265978 -0.255983 0.023031 0.167282 -0.061846 -0.003427 -0.016027 0.042474 -0.287609 -0.068080 0.074533 -0.151264 -0.218083 -0.024468 0.281268 -0.205310 -0.070098 -0.033934 -0.179719 0.201427 0.002628 -0.340281 0.009086 0.006381 -0.052030 0.269969 0.340369 0.227688 0.656093 -0.397501 -0.068825 -0.113274 0.365675 0.216047 -0.112748 0.215460 0.206712 -0.586283 -0.380828 0.160961 0.183890 -0.136570 -0.096625 0.050480 -0.136600 0.309232 0.244143 0.061378 0.203299 -0.090332 0.141661 -0.278122 -0.034820 0.054745
manner 0.279642 0.007757 0.038727 0.071285 -0.273959 0.041420 -0.232130 -0.359105 -0.048462 0.055851 -0.059769 0.416729 0.517038 0.049396 -0.061571 -0.502553 -0.043682 0.018798 -0.556977 -0.151672 -0.290660 -0.046194 -0.036283 -0.272131 0.391088 0.192786 -0.416922 0.139865 0.241950 0.191674 0.329374 -0.435647 0.338369 0.255953 -0.081766 0.322152 0.299893 0.222006 -0.367807 0.004036 0.107850 0.161056 -0.136074 0.152651 0.334113 0.216461 0.444481 0.091912 -0.135923 0.294094 -0.043177 0.115417 -0.209413 -0.050556 0.040908 -0.251392 0.312325 0.164381 -0.064774 0.067191 0.246830 0.090475 -0.181531 0.133375 -0.292227 0.241786 0.197197 -0.173656 -0.196047 -0.076902 -0.282304 0.003459 0.468378 0.127519 0.494415 0.111528 -0.237012 0.124762 -0.185966 0.359020 -0.268116 -0.265705 0.158561 -0.181310 -0.174058 0.173095 0.040991 0.054962 -0.301147 -0.215421 -0.190063 0.695445 -0.249826 0.410993 -0.333716 -0.510392 -0.259427 -0.315726 -0.463177 -0.230458
extremely 0.216503 0.191189 -0.013803 -0.120586 -0.051415 0.056856 -0.116330 -0.185452 -0.066447 -0.078748 0.394304 0.173169 -0.089443 0.144232 -0.116821 0.056452 0.149807 0.140235 -0.157094 -0.010784 0.126465 -0.309138 -0.179794 -0.333355 0.001304 -0.015722 -0.048048 -0.255841 -0.001199 -0.169036 -0.004028 -0.114988 0.381709 0.047802 0.063178 -0.287961 -0.008064 -0.154994 -0.067981 0.154289 -0.317688 -0.013491 0.391001 0.094996 -0.137857 -0.350621 0.095960 -0.103237 -0.151789 0.490832 0.050066 -0.169310 0.048198 -0.166905 0.156360 0.206810 0.071234 0.439131 -0.156122 -0.037205 0.267219 0.042522 -0.320318 0.318526 -0.289216 0.006929 0.018477 0.189738 -0.044795 -0.265971 -0.076635 0.018434 0.265380 -0.152935 0.372298 0.199948 -0.178678 -0.058160 -0.057926 0.003927 -0.076507 -0.313703 0.187730 -0.259703 -0.327183 0.050570 0.290208 0.167020 -0.098488 0.015554 0.094020 0.221875 -0.023938 0.153552 0.047009 -0.405900 0.104414 0.186224 -0.117639 0.156087
thing 0.075043 0.042965 -0.026119 -0.097179 0.210065 0.088826 -0.068976 0.000540 0.203692 -0.243872 -0.055299 -0.130046 -0.095541 0.203195 0.291637 0.595309 -0.178236 -0.064437 -0.101325 0.003511 -0.386084 0.029756 -0.253571 0.089548 0.091842 0.046323 -0.594291 -0.096770 -0.020346 0.068235 0.196046 -0.022075 0.378998 0.364117 0.153066 -0.099319 -0.031479 -0.098672 0.232895 -0.278105 0.028158 -0.031193 0.063488 0.298726 0.179230 -0.080249 0.059163 0.353969 -0.373236 0.103934 0.289035 -0.101428 0.073044 -0.102599 0.287352 0.121355 -0.055059 0.426131 0.366523 0.193342 -0.293825 -0.222234 -0.006740 0.182649 -0.254823 0.163663 0.066782 -0.065411 -0.291889 0.094720 0.046127 0.248412 0.021471 0.235045 0.674474 0.030992 0.067744 0.009729 -0.211080 -0.056032 -0.304900 0.051386 -0.187616 -0.067726 -0.030004 0.043850 -0.027084 -0.275270 -0.163865 -0.073453 -0.006966 0.057568 -0.047127 0.264858 0.086313 -0.152357 -0.022151 -0.155386 0.210775 -0.194543
better -0.310714 0.089338 0.087072 0.159783 0.166958 -0.079123 0.139299 0.103769 0.538431 0.345780 -0.384510 -0.132988 0.087263 0.287088 0.292691 0.213903 0.013074 -0.101607 -0.386792 0.047559 0.015832 0.112009 -0.106852 -0.047298 -0.088087 0.065745 -0.226888 -0.373590 0.058773 -0.134213 0.068115 -0.039664 -0.166696 0.126393 0.161367 0.215199 0.272150 -0.190011 0.112792 0.064643 0.081796 -0.053541 0.234837 0.157541 0.007539 -0.265685 0.312388 -0.169798 0.229187 0.076649 -0.331090 0.300748 -0.071561 0.062120 -0.022870 0.432172 0.124016 -0.119821 0.004091 0.435077 -0.167197 -0.008990 -0.031040 -0.255464 -0.390433 0.012611 0.039016 -0.038895 0.016718 0.253981 0.366303 0.219151 -0.170549 0.297083 0.449945 -0.145813 -0.008619 0.051847 -0.320011 -0.206390 0.169266 0.114506 0.005584 -0.096071 -0.044170 0.157876 0.104105 -0.230156 -0.267893 0.035029 -0.450189 0.145210 0.176081 -0.478315 -0.212017 -0.420907 -0.288132 0.029327 0.076871 -0.154729
child -0.088074 0.421652 -0.168814 0.272317 0.148329 -0.166115 0.059750 -0.087521 -0.278492 0.418704 -0.166048 -0.170688 -0.061788 -0.214668 0.292414 -0.233487 -0.269257 -0.056961 -0.162322 -0.174701 0.163053 -0.067680 -0.242182 -0.139806 0.332294 0.189679 -0.104321 -0.167091 -0.139190 -0.246569 -0.051643 -0.371693 -0.243829 -0.112813 0.324374 -0.237675 -0.010209 0.153064 -0.051951 -0.041401 -0.059499 -0.291584 0.024301 0.011164 -0.281391 0.132569 -0.108222 -0.238981 -0.170914 -0.208817 0.296679 0.035556 -0.075083 0.181328 -0.180095 0.175029 -0.054047 -0.019835 -0.166581 0.008682 -0.130391 -0.050829 -0.525564 0.499066 -0.523368 0.054422 0.450157 0.194244 0.213924 -0.099307 -0.128266 0.065290 0.336233 0.209185 0.503022 -0.188848 0.179024 0.201503 -0.158236 -0.068369 -0.369064 -0.272202 -0.056721 -0.418323 -0.454633 0.249088 -0.355977 0.225000 0.218405 -0.281160 0.036450 0.403387 0.288212 -0.007310 0.082630 -0.295603 -0.308802 -0.017841 0.077416 -0.192766
call -0.104137 -0.317703 0.048186 -0.111719 0.124134 -0.438270 -0.443472 -0.104478 0.054842 -0.326754 -0.055520 0.468473 -0.507138 0.020040 -0.060277 0.130317 -0.063730 -0.010124 0.039749 -0.415435 0.001790 -0.074746 -0.019189 0.310151 0.028884 0.082285 -0.343905 0.180479 0.030877 0.290483 0.182041 0.368461 0.214359 -0.107488 0.087630 0.020348 -0.179971 -0.156334 -0.238293 -0.266856 0.008314 -0.126194 0.705202 0.208075 -0.014589 -0.049932 -0.108103 0.177411 0.560431 -0.214313 -0.223246 -0.092629 -0.571033 0.029809 -0.035818 0.125821 0.416797 0.051570 -0.282454 -0.004703 -0.207299 -0.202966 -0.336407 0.087187 -0.468679 -0.146108 -0.123747 0.194133 -0.017297 0.015506 -0.082107 0.233796 0.198793 -0.141591 0.538067 0.169794 0.033806 0.145065 0.256968 -0.525918 -0.326330 -0.447972 -0.082555 -0.194959 -0.169301 0.143757 0.166324 0.359787 -0.127466 -0.217403 -0.048008 -0.056019 -0.078253 -0.036452 0.310094 0.007801 -0.199900 0.137641 0.193405 0.137996
another -0.117031 0.111416 -0.031779 -0.034167 0.029904 -0.253745 -0.258587 0.039121 -0.113033 -0.102673 -0.271080 0.082013 0.002979 0.328509 0.378858 0.282812 0.137357 -0.276617 0.151117 0.227256 0.002768 -0.037076 -0.270202 0.148248 0.214120 0.162489 0.153325 -0.270350 0.035571 0.038325 0.231779 0.067931 -0.021430 -0.046876 0.060996 -0.026347 0.292878 -0.051006 -0.233352 0.022535 0.443105 -0.392907 0.329122 -0.178551 -0.004504 0.043087 -0.083106 0.219153 0.079308 0.221524 0.050988 0.155032 0.104187 0.229108 0.126795 0.370650 0.188216 0.000962 -0.282272 -0.283685 0.139807 0.057133 -0.189467 0.027936 -0.040184 0.171170 -0.039346 0.262178 -0.067944 -0.036230 0.121462 0.285437 0.007078 0.084582 0.284924 0.004310 0.213226 -0.058353 0.081627 -0.213501 0.063921 -0.058593 -0.375234 -0.230189 0.041119 0.136504 0.402156 0.114060 0.096308 0.013938 0.244108 0.055316 -0.075994 0.123953 -0.349504 -0.278019 -0.233105 -0.040838 0.004542 -0.041608
surgeon 0.017160 -0.042507 -0.041800 0.088110 -0.157885 -0.024307 -0.065247 -0.267767 -0.008317 -0.372956 -0.024445 0.173001 0.028917 -0.212160 0.342607 0.305818 -0.006428 0.004820 -0.045329 0.164608 -0.298487 -0.236687 -0.037902 -0.113390 -0.384404 0.027379 0.040023 0.078152 0.067753 0.051864 0.079073 -0.204740 -0.004337 0.157513 -0.310088 -0.058419 0.350570 0.494727 -0.185652 0.229101 -0.333050 -0.001380 -0.029933 0.161629 0.113089 -0.099674 0.402156 -0.085777 0.083349 0.338514 0.196577 -0.216735 0.141911 0.038577 0.027287 0.310950 0.324536 0.575002 -0.129525 -0.026427 0.323405 0.055870 0.030899 0.067430 -0.273125 -0.141006 0.328313 0.003214 0.096058 0.186361 0.539213 0.200245 -0.092700 -0.222188 0.261963 0.121079 0.055310 0.070840 -0.318952 0.335422 0.194158 -0.064242 0.172849 -0.404600 0.202559 0.190320 -0.082954 -0.133417 -0.135415 0.013079 -0.153724 0.126967 0.366496 0.611164 0.458309 -0.760796 -0.578583 0.213060 -0.218206 -0.255076
way 0.239320 -0.029664 -0.312352 0.067107 -0.058187 -0.174454 0.144183 -0.109824 0.072580 -0.357138 0.031404 0.145026 0.179492 0.160322 0.153848 0.251631 -0.209025 0.092879 -0.005834 -0.125894 0.149633 -0.169831 0.113849 -0.243777 0.309757 0.057741 -0.232374 0.047101 0.040079 0.095921 0.324873 -0.162889 -0.022710 0.132818 0.227386 -0.219823 -0.175973 -0.068851 -0.023393 0.359590 0.159522 -0.082617 -0.004319 -0.134177 0.019332 -0.192175 0.244565 -0.059740 0.040539 -0.053792 0.209014 0.398273 -0.081800 0.002102 0.349814 0.297785 -0.021988 0.435490 0.042094 -0.015169 -0.161096 -0.349784 -0.262432 0.051426 -0.227380 -0.008699 -0.103625 0.271240 -0.160148 0.192598 -0.152324 0.100188 0.110666 0.157678 -0.013997 0.174976 0.041523 -0.293570 -0.178243 -0.008426 0.059148 0.215406 -0.046425 -0.156734 -0.048249 0.172094 0.064953 0.044578 -0.250779 0.030243 -0.147598 0.101129 0.255155 0.072727 -0.207329 -0.237071 -0.113407 -0.233780 -0.404333 0.073374
felt -0.276998 0.456189 -0.147354 0.047078 -0.192612 -0.078134 -0.019097 -0.078164 0.362674 -0.373057 0.063068 0.030104 0.397243 -0.106254 -0.122483 -0.146956 0.107662 0.222740 -0.128738 -0.020050 -0.400228 -0.180858 -0.314674 -0.220643 0.279002 -0.025909 0.027869 -0.485709 -0.148158 -0.188060 0.277874 0.104169 0.513215 0.043970 -0.087767 -0.170660 0.179778 0.110241 0.179717 -0.429900 0.038561 -0.268166 0.111587 0.204520 -0.070246 -0.227444 0.229568 -0.253724 -0.122237 0.257839 0.203743 0.132127 -0.217565 -0.207813 0.066472 -0.040148 -0.191976 0.199038 -0.282493 -0.409973 0.183221 0.028498 -0.294643 -0.017853 -0.250938 0.051584 0.117446 -0.097409 -0.113917 -0.080021 -0.087376 0.220724 -0.130885 -0.282597 0.324881 0.003500 0.151282 -0.112287 0.385133 -0.043076 -0.141707 -0.081141 0.016647 -0.290230 0.273117 -0.246812 -0.197021 -0.098068 -0.307166 0.138605 -0.073204 0.194948 -0.089766 0.040167 -0.019212 -0.080687 -0.250298 -0.275411 -0.169331 0.050710
thorough 0.300745 0.220553 0.123122 -0.552635 0.012561 0.280640 -0.222995 0.104508 -0.121427 -0.186329 0.136874 0.004386 0.175977 0.227950 -0.139254 0.102053 -0.136685 -0.118903 -0.333929 -0.248494 -0.013468 -0.275744 -0.169934 -0.385860 0.116424 0.172433 -0.068293 -0.117769 0.225954 -0.122524 0.182926 0.074908 0.443809 -0.154509 0.023729 -0.095267 -0.033271 0.007379 0.157920 0.082306 -0.068575 -0.047947 0.119128 0.190847 -0.310691 0.010875 0.203678 -0.080203 0.152160 0.440248 -0.154214 -0.349898 -0.252832 -0.108938 -0.123660 0.301093 0.330775 0.232189 -0.006566 -0.213575 0.157813 0.106041 -0.226265 -0.097250 -0.352677 0.112510 0.386620 -0.330908 -0.328925 -0.302563 -0.229697 -0.020656 0.475782 0.354858 0.111966 -0.099168 -0.226104 0.032539 0.005137 -0.286720 -0.391717 -0.006395 -0.161333 -0.154872 -0.456751 0.340834 0.223612 -0.406828 -0.276889 -0.050034 0.034108 0.127012 0.388597 0.286145 -0.168401 -0.214686 0.028224 -0.150159 0.044942 0.017391
medical 0.389790 0.413140 -0.121670 -0.026441 -0.188224 0.007297 0.111333 0.255059 -0.351686 -0.240619 0.384586 0.202668 0.025732 0.249854 -0.224811 0.102863 -0.316143 -0.085752 -0.034750 -0.390661 0.212162 -0.412345 -0.016189 0.126786 -0.028538 0.211129 -0.154973 -0.377364 0.109480 -0.158480 0.018265 0.138582 0.103267 0.097588 0.026840 -0.131642 0.206448 0.005405 0.249913 0.141206 -0.166069 -0.022791 -0.067011 0.028218 0.086765 0.127084 -0.058245 0.045756 -0.013155 -0.022717 -0.149805 0.261966 0.011084 -0.012338 0.103923 -0.063381 0.486665 -0.016310 -0.171230 -0.125739 -0.020211 -0.183076 -0.066824 0.188643 -0.036200 -0.180405 0.303046 -0.247075 0.168511 0.105312 -0.089228 0.377959 0.236266 0.283367 0.389571 0.154293 0.338247 0.166005 -0.038979 -0.220742 0.095180 -0.246140 0.049673 -0.125984 -0.175990 0.374875 0.224868 0.088166 0.004829 -0.219430 -0.104709 0.132264 0.345942 -0.071566 0.483890 -0.409212 -0.027779 -0.087440 -0.113851 -0.625325
month 0.050707 0.111701 0.094887 -0.361545 0.207928 0.015024 -0.136174 -0.134840 0.124659 0.030238 -0.060791 0.063321 0.019036 -0.089625 -0.033219 0.169907 0.229404 -0.372598 -0.110794 -0.101871 0.060262 -0.003592 -0.040881 -0.356173 -0.029422 0.329527 -0.311999 0.095224 0.088696 0.113081 0.302596 0.191799 -0.038914 -0.116719 -0.037701 -0.073481 0.298170 -0.038886 -0.341950 -0.093545 0.385505 -0.448981 0.246193 0.028433 0.056770 -0.254420 -0.014593 0.116147 -0.136660 -0.294939 -0.012934 -0.041381 -0.143919 0.243454 0.168039 0.401100 0.261582 0.013424 0.026539 -0.091225 -0.141879 0.282280 -0.307955 -0.190756 -0.128794 -0.094069 -0.341647 0.251940 -0.294550 -0.067346 0.249450 0.281544 -0.196985 -0.016874 0.173271 -0.259579 -0.158169 0.019099 0.088846 0.040644 0.170572 -0.135961 0.246396 -0.519539 -0.368613 0.096819 -0.478271 0.162351 -0.148339 0.180747 -0.090097 0.124290 0.127876 -0.051077 -0.052463 -0.349622 -0.205182 0.188365 0.004352 0.177974
seen 0.249092 0.130127 -0.191332 -0.047088 -0.192893 0.143442 -0.080437 0.045413 -0.077234 0.127764 -0.159572 0.077675 -0.154454 0.273095 -0.309548 0.515975 0.215555 -0.052954 -0.096030 -0.079422 0.044479 0.123514 -0.327297 -0.197089 0.374172 0.315959 -0.243785 -0.346077 0.139292 -0.109215 0.070644 0.388613 0.157919 -0.111227 -0.188915 -0.315547 -0.100078 0.211737 -0.034547 0.046950 0.256336 -0.060400 0.435503 0.019661 -0.068891 0.246711 0.081784 -0.220259 -0.073785 -0.259031 0.151696 0.045914 -0.247877 -0.188035 -0.155635 -0.028831 0.112186 0.013177 -0.363668 0.168900 0.292516 0.091078 -0.085147 0.142298 -0.449296 0.165420 0.112398 -0.106365 -0.257742 0.148161 -0.010736 -0.129019 0.125372 -0.249574 0.400539 0.042652 -0.303173 0.068405 0.060801 -0.172934 0.272969 -0.330214 -0.134235 -0.178023 -0.056310 -0.211042 -0.178397 -0.058687 0.090701 0.092233 0.097689 0.174650 0.155406 0.306025 -0.329537 -0.553494 -0.056939 0.094681 0.021906 0.050889
love -0.104609 0.083381 -0.118236 0.218291 0.088913 -0.347692 0.107431 -0.324455 0.029144 -0.257453 0.047215 -0.032289 -0.219319 -0.272489 0.480900 0.049188 -0.221278 -0.015807 -0.179535 0.093981 -0.078328 0.159047 -0.195221 -0.305721 0.436804 0.318391 -0.523840 -0.079881 -0.188662 -0.270147 -0.051096 0.001107 0.068117 0.110021 0.009098 -0.221333 -0.104273 0.041069 0.364354 0.202862 0.171883 -0.017490 -0.073747 0.495346 0.055467 0.053567 0.075537 -0.115150 -0.105089 0.484064 0.041032 0.432121 -0.257778 -0.112973 -0.256657 0.216373 0.449981 -0.025233 -0.133405 0.384564 -0.402443 -0.075523 0.196890 0.087480 -0.447898 -0.132600 0.589999 0.124396 0.109167 -0.302299 -0.099337 -0.178428 0.050029 -0.117018 0.395075 -0.123124 -0.144674 0.161291 -0.219244 0.021509 -0.193950 -0.041474 0.440795 -0.302837 -0.460883 0.237983 0.070792 0.312592 -0.165400 -0.234940 0.014772 0.297093 0.382792 0.084689 -0.379488 0.001988 -0.057083 -0.248224 0.221245 0.595316
every 0.304236 0.341366 -0.096086 0.263401 -0.122110 -0.478000 0.144505 -0.025027 0.031140 -0.411541 -0.214162 0.200070 -0.115199 -0.075686 0.196259 0.337176 -0.230692 -0.119874 -0.171204 -0.104585 0.043171 -0.202419 -0.339423 -0.249937 0.320171 0.110234 -0.298325 -0.120265 0.397313 -0.063606 0.237670 0.031190 0.140959 -0.247455 0.132376 -0.474864 -0.215466 -0.025761 0.045074 0.279857 -0.275643 -0.147507 0.077666 -0.109857 0.034858 -0.192453 0.073274 0.225405 -0.038068 -0.074072 0.084550 0.043281 -0.195967 -0.183780 0.061168 -0.063770 -0.056147 0.276844 0.050954 0.068045 -0.130764 -0.190214 -0.145673 -0.032936 -0.086101 0.060222 0.139231 0.136440 -0.261218 -0.155771 0.244878 0.291503 0.234760 0.247048 -0.000783 0.031671 -0.260978 -0.122794 0.013658 -0.247058 -0.007101 -0.069118 0.187767 -0.235296 -0.003292 -0.163803 -0.126687 0.140450 0.028172 0.219122 -0.265774 0.147110 0.168202 -0.099138 -0.211915 -0.180896 -0.336372 -0.247507 0.275604 0.108517
before 0.113194 0.128067 -0.019488 0.112022 0.100661 -0.422324 -0.343595 0.030158 0.188541 0.122788 0.149552 -0.277232 -0.227593 0.036114 0.122520 0.148475 0.196787 -0.110819 -0.008087 -0.047280 -0.119905 -0.068487 -0.025687 -0.413739 -0.082400 0.196188 -0.307932 -0.089981 -0.105566 0.096676 0.124796 -0.055891 0.340898 -0.202370 -0.134276 0.068199 0.249602 0.034157 0.022679 -0.240306 -0.137410 -0.184984 0.196281 0.181852 -0.116374 -0.242768 0.140197 0.270708 -0.069254 -0.172752 0.249281 0.216545 -0.175941 0.343730 0.159895 0.411469 -0.093302 0.127395 -0.205179 -0.009431 0.348388 -0.123320 0.002082 -0.070467 -0.111271 0.121431 -0.002892 -0.005814 -0.312081 0.133200 -0.160510 -0.320887 -0.095923 0.130870 0.062227 0.001013 -0.084912 -0.062819 -0.021030 -0.158161 0.049146 -0.062878 0.037586 -0.402534 0.011385 0.057505 0.199231 0.101607 0.147378 0.040321 -0.104582 -0.068161 0.092354 0.138308 0.143014 -0.324268 -0.162526 -0.036694 -0.340817 -0.191410
answer 0.152867 -0.065399 0.066601 0.344068 -0.208943 0.321797 -0.261097 0.087692 0.035528 -0.009511 -0.316215 0.093738 -0.020891 0.277996 -0.063349 0.083598 -0.195530 0.069014 0.064788 -0.281820 -0.128163 -0.056871 -0.159351 -0.016601 0.068029 0.011251 -0.305928 -0.009843 -0.024797 0.066276 0.103320 0.356346 0.261598 -0.043502 0.018625 -0.219676 0.089097 -0.022827 -0.164318 -0.122083 -0.459455 -0.088259 0.279195 0.209893 -0.096833 -0.141329 0.259391 0.268333 0.328246 0.470278 -0.043965 0.115923 -0.098946 -0.027226 0.040835 0.255425 0.195658 0.086534 -0.295447 0.033387 -0.036534 -0.016117 -0.197232 0.051150 -0.420087 -0.133501 0.143539 0.070580 -0.280889 0.139092 -0.452692 0.127587 0.357348 0.353840 0.357306 0.418035 -0.078817 0.111191 -0.138980 -0.135362 -0.827175 -0.310308 -0.168773 -0.234395 -0.337164 -0.409461 0.072528 -0.329878 -0.368891 0.134140 -0.139613 0.268334 -0.225953 0.033320 0.119502 0.095805 -0.325540 -0.168912 0.047171 0.123976
wait 0.148260 0.510875 0.045206 0.157748 0.186676 0.017462 -0.732188 0.034811 -0.161590 -0.203758 -0.197961 0.262503 -0.241909 -0.000344 0.072682 0.508199 0.424528 -0.276966 -0.070816 -0.204723 -0.323429 -0.117461 0.081134 0.136277 0.235069 0.323010 -0.304323 -0.479283 0.173930 -0.256754 -0.125749 0.288401 0.176215 0.326342 -0.129687 0.126592 0.291724 -0.188138 -0.336071 0.411242 -0.234823 -0.064344 0.170775 0.213611 -0.201052 0.215063 0.049427 -0.216757 0.143250 -0.151915 -0.072750 0.211769 -0.317007 0.238187 -0.112994 -0.067093 0.201543 0.052353 -0.025620 0.463463 -0.046507 0.156814 -0.295644 -0.025816 -0.236139 0.291170 -0.047960 0.183463 0.065174 0.135480 -0.450803 -0.492597 0.450258 -0.039155 0.633235 -0.035666 -0.151083 -0.277661 0.025314 -0.056698 -0.002040 -0.311918 0.019646 -0.508607 0.191922 0.144552 -0.171612 0.278706 0.335198 0.401575 -0.294267 0.059622 0.180751 0.132349 -0.271214 0.082509 -0.307917 0.301341 0.294406 0.112077
since 0.105853 0.380443 -0.485957 -0.310130 0.155120 -0.254929 -0.019410 -0.187134 0.223373 0.138543 0.093090 -0.002483 0.036690 -0.040610 0.291151 0.254620 -0.057316 -0.252229 0.006691 -0.132094 0.125000 0.158811 0.357498 -0.102612 0.431565 0.235276 -0.701541 -0.599852 -0.037418 -0.133715 -0.013713 0.112497 -0.209784 -0.199049 0.312439 -0.137720 -0.002252 0.082892 0.081667 -0.097381 0.211121 -0.160783 0.096187 -0.173831 0.201607 -0.257975 -0.114520 0.092061 -0.136694 -0.049369 0.170587 -0.136118 -0.163030 0.000915 0.247362 0.251362 0.142697 0.055682 -0.332830 0.023147 0.260101 -0.293429 0.313372 -0.226270 -0.101949 -0.133509 -0.245332 0.211502 -0.136982 0.236558 0.035049 0.168396 -0.030141 -0.050823 0.351445 -0.384332 -0.114353 0.205954 -0.017967 0.159475 0.518499 -0.058542 -0.074185 -0.315856 -0.510940 0.174990 -0.015182 -0.246930 0.189086 -0.125212 -0.051713 0.357683 0.069287 -0.054369 0.021642 -0.355508 -0.038455 0.249747 -0.250731 -0.039544
right -0.110089 -0.045210 -0.148135 0.203165 0.088542 -0.188441 0.003969 -0.098061 0.085680 -0.507082 -0.103693 -0.070935 0.333832 0.080650 0.028290 0.214509 -0.235867 -0.292831 -0.254011 0.322788 0.019737 0.046982 0.010239 0.275557 -0.107928 0.325171 -0.244670 -0.013351 0.479902 0.093587 0.144861 0.151133 0.452288 -0.310803 0.026306 0.280655 0.447566 -0.166314 0.174877 -0.141132 0.065039 -0.059845 0.303254 -0.209805 0.078925 -0.155833 0.193419 0.002167 0.004697 -0.009570 -0.196239 -0.058970 -0.034665 0.131172 0.233522 0.257931 -0.191354 0.235792 -0.048490 -0.292488 0.329698 0.099344 0.159424 0.037173 0.042324 -0.103872 0.134830 0.257461 0.030859 0.272325 0.224215 0.338592 0.192107 0.183277 0.064901 0.019183 -0.364128 0.109546 0.013013 0.048916 -0.266570 0.120650 -0.005900 -0.189629 -0.173762 -0.053207 0.044096 0.586030 0.083967 -0.002019 -0.248973 -0.092231 0.105448 -0.021550 -0.107642 -0.130966 -0.408064 0.008993 -0.115240 -0.015304
done -0.111719 -0.033415 0.046353 0.031160 -0.230215 -0.361780 -0.167750 0.370710 -0.063734 -0.068262 -0.233280 -0.550622 -0.356197 0.038462 0.070000 0.001299 -0.144801 -0.096391 -0.587798 0.114437 -0.033449 -0.032100 -0.192984 -0.104343 0.033937 0.089550 -0.283959 0.007622 0.015489 -0.212372 0.164762 -0.037689 -0.060467 0.115855 0.087063 0.172929 0.045323 0.214162 0.208854 -0.353585 -0.046059 -0.142453 -0.036040 -0.157537 -0.197308 -0.081175 -0.135552 -0.041761 -0.154196 -0.041859 -0.068234 0.263284 -0.042113 -0.185551 0.334170 0.311345 0.387470 0.568368 0.030468 -0.023995 0.486984 -0.039474 0.132094 -0.202678 -0.170139 -0.017947 0.087422 0.247011 -0.196368 -0.004468 -0.008849 -0.071148 0.188347 0.122118 0.560006 -0.105437 -0.326512 0.039680 0.027783 0.018231 0.143301 -0.236248 0.168530 0.049241 -0.015560 0.161879 0.440084 -0.162003 0.065066 0.195650 0.142746 -0.271701 0.242768 0.234032 -0.040704 -0.378462 -0.435367 0.129470 -0.183115 0.058139
physician 0.228010 0.260165 -0.332793 -0.023832 -0.240102 0.119913 -0.145085 0.105374 -0.052871 -0.085027 0.234452 0.208806 0.184526 0.057236 0.276689 0.471342 -0.142981 0.428683 -0.205149 -0.182859 -0.199141 0.018776 0.277228 -0.054667 0.305506 0.248550 0.173655 -0.209966 0.216214 -0.202836 0.050535 0.020130 0.014716 -0.048161 -0.048766 -0.153882 0.375822 -0.134375 -0.367385 0.206519 0.098678 -0.122494 -0.037389 -0.053343 0.073144 0.058401 0.165666 -0.198860 0.226976 0.398522 0.020059 -0.304945 0.067753 -0.276813 -0.093521 0.298839 0.339238 -0.004164 -0.140292 -0.109622 -0.091477 0.052010 -0.282614 0.089752 -0.010122 0.164390 0.147980 -0.150831 -0.099183 -0.119504 -0.089517 0.383139 0.102847 0.097556 0.349087 -0.135292 0.028744 0.385783 -0.497985 -0.036745 -0.161285 -0.278591 0.214268 -0.217566 0.138893 0.406120 0.263242 0.078160 0.089019 0.074748 -0.089020 0.227911 0.123711 0.443889 0.162475 -0.330068 -0.290371 0.177013 0.320883 -0.420590
happy -0.107620 -0.027017 0.214733 -0.161870 0.419791 0.099909 0.103133 0.088090 0.074824 -0.156720 0.175211 -0.037932 -0.051316 0.007866 0.010906 0.253211 -0.209144 -0.129082 -0.409121 0.188263 0.071317 -0.114563 0.177822 -0.354549 0.302878 0.014066 -0.014349 -0.146598 -0.049970 0.058031 -0.108957 -0.042244 0.203223 0.559620 0.075512 -0.059257 0.270728 0.318004 0.073236 -0.093590 0.331645 -0.120683 0.282315 0.313023 -0.069810 -0.235030 0.030203 -0.009149 -0.188269 0.191413 0.187723 0.058200 -0.253689 0.134464 0.060448 0.191298 0.205355 0.133176 -0.337128 -0.095014 0.334153 0.387047 0.173113 0.054805 -0.071635 -0.189981 0.205221 0.010115 0.000927 0.175463 -0.371015 0.042831 0.110696 0.072283 0.226236 0.334673 -0.440379 0.084566 0.132520 -0.102352 -0.124675 0.142855 0.047275 -0.664673 -0.045117 -0.299132 0.323222 -0.205654 -0.330132 0.346425 0.196532 0.014703 -0.296450 0.035204 0.106289 -0.282350 0.001096 0.099209 0.079442 0.462202
health -0.011883 0.432286 -0.419520 -0.043412 -0.190352 0.154717 0.419008 -0.168160 -0.000885 -0.037926 0.317634 0.066589 -0.107638 0.222196 0.088166 0.040893 -0.302823 -0.063443 0.130765 -0.175901 -0.306290 -0.128250 -0.333382 -0.121396 0.225464 0.122073 -0.114577 -0.540595 0.339087 -0.315162 -0.112519 0.091785 0.146082 -0.095997 0.179954 -0.031886 0.081723 -0.187997 -0.039702 -0.240758 0.157039 0.227309 0.050355 0.076652 0.063954 -0.167050 0.078983 -0.128167 -0.247702 -0.215756 -0.390505 0.246052 -0.070955 0.079023 -0.213952 0.326701 0.331076 0.206190 0.156132 0.064311 0.028142 -0.024436 0.099827 0.638086 -0.152442 -0.229207 0.072511 -0.096100 -0.226801 0.103902 -0.458116 0.344400 0.079041 0.114959 0.082568 -0.059080 -0.157681 0.164750 -0.072514 -0.315679 -0.044516 0.093060 -0.198576 0.003517 0.230820 0.387083 -0.353579 0.309561 -0.243075 -0.245049 0.183039 0.182905 0.506611 0.024675 0.109299 0.029512 -0.395748 0.529967 -0.000289 -0.356994
new -0.150594 0.296139 -0.394050 0.128929 -0.114394 0.048400 -0.116238 -0.126541 -0.071987 -0.010690 -0.181308 0.176313 -0.135373 -0.177634 -0.107450 0.170323 -0.032450 -0.160312 0.133989 -0.263897 -0.194623 0.296139 -0.249886 -0.022410 0.123784 0.268004 -0.342174 -0.196513 0.150300 0.120298 -0.284854 0.367717 0.221151 -0.030832 0.423343 0.250468 -0.060983 0.067682 0.030988 -0.000700 0.058876 -0.119947 0.181858 -0.057749 0.251983 0.359229 -0.236685 0.104895 -0.187552 0.439550 -0.140684 -0.031986 -0.160958 0.357465 0.182268 0.499693 0.493718 -0.339292 -0.267100 -0.114939 0.427670 -0.159704 0.118903 -0.114266 0.023168 0.299868 0.140293 0.342526 -0.154590 -0.011901 -0.182003 0.150428 -0.040654 0.054931 0.222898 -0.064758 0.222790 0.157362 -0.253042 0.071850 -0.003760 0.167588 -0.239439 -0.194002 0.094842 0.050856 0.297822 -0.041359 -0.017843 -0.070065 -0.235366 0.325053 -0.029825 -0.028336 0.167092 -0.273799 -0.099548 0.068415 -0.183337 0.363115
comfortable -0.000882 0.193846 -0.135318 0.131077 -0.292673 -0.340654 -0.063155 -0.103702 0.033296 -0.256349 0.164398 -0.264945 0.412790 0.059556 0.062768 0.112075 -0.016704 -0.170078 -0.396659 -0.180688 -0.251631 -0.053784 -0.258509 -0.093207 0.419661 0.096433 -0.227039 -0.379247 -0.089651 0.181203 0.449846 -0.052222 0.193366 -0.017784 0.303511 -0.014159 0.286156 0.244262 0.279192 0.070294 -0.210009 -0.084299 0.220861 0.208527 -0.132197 -0.454476 0.024964 -0.267192 0.258947 0.545330 -0.087643 0.340914 -0.081282 -0.268525 -0.179322 0.182301 -0.439779 0.213608 -0.068011 0.006828 -0.182051 0.015425 -0.058866 -0.188176 -0.274766 -0.042843 0.449842 -0.088932 -0.110012 0.045154 -0.511782 0.164239 0.055344 0.064730 0.357319 0.152354 -0.330600 -0.340407 -0.014656 -0.284798 -0.307638 0.579444 0.124893 -0.352625 -0.246563 0.020429 -0.141225 -0.412365 -0.006221 -0.108905 0.028869 -0.174277 -0.162790 -0.310109 -0.207462 -0.492282 -0.000408 0.146076 0.156868 -0.021395
week -0.067946 0.053249 0.135605 -0.396137 0.246594 0.038983 -0.239967 -0.021679 0.050144 -0.129531 0.058056 -0.040713 0.231037 -0.082436 0.180384 0.285951 -0.029484 -0.227349 -0.277537 -0.190168 -0.049672 0.094395 0.009454 -0.334322 -0.163765 0.179829 -0.080155 -0.004438 -0.074639 0.409909 0.040886 0.068795 0.139807 -0.046259 0.153922 -0.193049 0.355079 0.252536 -0.268498 -0.603977 0.310663 -0.390949 0.143087 -0.101029 0.004583 0.040093 -0.034472 0.344726 -0.222638 -0.462548 -0.208427 -0.020945 -0.403314 0.375466 -0.010421 0.427621 0.403939 0.246906 -0.026965 -0.067219 0.131588 0.297847 -0.354816 -0.335662 0.171327 -0.187150 -0.133264 0.035422 -0.044171 -0.101249 0.204729 0.210186 0.000610 -0.013814 0.409285 -0.193689 -0.289680 0.027179 -0.015593 -0.111723 0.053436 0.021129 0.172055 -0.588303 -0.148419 0.040725 0.203872 0.141502 -0.070639 0.272105 -0.217519 0.035638 -0.062529 -0.133028 -0.088295 -0.176828 -0.263311 0.274792 0.074265 0.079573
didn't -0.148897 0.376753 0.064919 0.153522 -0.006324 -0.218805 -0.398445 0.039225 0.423746 -0.173083 -0.303560 -0.071858 -0.064783 0.093222 -0.143727 0.482364 0.159557 0.350488 0.174881 0.011291 -0.016316 -0.276690 -0.139330 -0.042702 -0.033186 0.231179 0.042894 -0.385276 0.026079 0.177471 -0.132096 -0.182628 0.100939 0.110496 0.030771 0.173995 -0.061408 -0.339688 -0.120101 0.101969 0.312617 -0.467313 0.069432 -0.179637 0.030215 0.081949 -0.255887 -0.199591 -0.186450 0.207830 0.136197 0.081733 0.139761 0.250769 -0.256186 0.348301 0.176431 0.302832 -0.160866 0.120458 -0.164566 0.021557 0.038029 -0.084964 -0.108116 0.028083 -0.206861 -0.049826 -0.408596 -0.242207 -0.142014 0.153949 -0.275066 0.083321 0.331953 0.412578 -0.168876 0.118165 0.322654 -0.627088 0.208710 -0.024941 -0.229621 0.081653 -0.310295 0.298631 0.153728 0.330462 0.022183 -0.114966 -0.317775 0.049696 -0.082397 -0.140198 -0.110784 -0.380723 -0.143293 -0.014205 -0.288787 0.014266
nice 0.078658 0.300155 0.215506 0.379360 0.258006 -0.084498 0.257946 0.023246 0.097601 -0.282502 0.134697 0.114337 -0.034428 -0.262155 -0.121047 0.178575 -0.129953 -0.370947 0.199387 -0.472548 -0.181659 -0.058234 0.133918 0.115295 0.246755 0.350496 -0.231060 -0.136619 0.084828 -0.332157 -0.049812 -0.097252 0.120427 0.166510 0.042532 -0.087199 -0.025102 -0.333293 0.277915 0.242472 0.149689 -0.244605 0.276927 0.214075 0.319234 -0.073461 0.213930 0.299073 -0.054817 0.519169 -0.071005 -0.174052 0.217810 -0.226514 -0.112043 0.348351 -0.219752 0.509299 -0.216862 0.169370 0.153951 0.257949 0.097021 -0.304893 -0.413779 0.016383 -0.051953 -0.101470 0.134223 -0.218108 -0.321827 -0.053043 0.160570 -0.272714 0.136670 -0.076378 -0.263552 -0.214629 -0.124516 -0.251640 -0.500472 -0.179725 -0.400541 -0.427198 -0.364800 0.354554 0.537838 -0.002579 -0.151399 0.184222 -0.142998 0.131886 0.185120 -0.057467 0.070393 -0.026593 -0.310290 -0.030099 -0.269972 0.155174
seeing -0.072564 0.064009 -0.655269 0.173976 0.090238 0.047994 -0.388330 0.041394 0.079907 0.149249 -0.411878 0.167904 -0.386889 0.296948 -0.196122 0.445766 -0.111005 -0.012838 -0.120431 0.102618 -0.030320 0.319656 -0.172293 -0.429848 0.276130 0.073395 -0.218495 -0.297861 0.321648 -0.407089 -0.188319 -0.101918 -0.006441 -0.064430 -0.077776 -0.146655 0.269389 0.099391 -0.033678 0.092797 0.218154 0.034951 0.266214 -0.040320 0.077373 0.023566 0.182762 -0.250197 -0.061766 -0.136424 -0.126927 0.056004 -0.055767 0.163352 0.198649 0.248372 0.155083 -0.112669 -0.148128 -0.028034 0.076805 0.030597 0.206892 0.350881 -0.326763 -0.032384 -0.156359 0.039360 -0.180934 0.307246 0.042342 0.137518 -0.407287 -0.398517 0.352558 -0.104000 -0.055958 0.120600 -0.111954 0.091231 -0.074652 0.030618 -0.163670 -0.450941 -0.387349 0.131109 0.047948 -0.084235 0.101889 -0.041531 -0.323042 0.132777 0.142047 0.130722 -0.310554 -0.164045 -0.105870 0.125309 0.231025 0.375563
don't -0.241125 0.458421 -0.039562 -0.127081 -0.160928 -0.180366 -0.236505 -0.362138 0.141278 -0.370094 0.044663 -0.203069 -0.304659 0.270051 0.130833 0.435760 -0.274766 0.156197 -0.326242 0.364090 0.206893 -0.021855 -0.425569 0.011728 0.119293 0.141237 -0.173123 -0.211267 0.038706 0.348693 -0.440552 0.000814 -0.232520 -0.138209 0.227375 0.185848 0.209286 -0.069989 -0.018064 0.454081 0.509302 -0.370047 0.088312 0.018964 -0.011247 0.269822 0.218016 0.238191 -0.351151 0.114012 0.008001 0.085230 -0.078944 -0.232486 -0.094167 0.089157 -0.000777 0.123511 -0.146742 0.082747 -0.239645 -0.042584 -0.341213 0.317578 0.050786 -0.024709 0.173689 0.059753 -0.249271 0.274460 -0.377544 0.298827 0.007943 0.267991 0.245369 -0.281843 -0.058062 0.115583 0.107791 -0.134465 0.044305 -0.128036 -0.450942 -0.103046 -0.000596 -0.353983 0.107300 0.269928 -0.184061 0.064933 -0.269949 -0.061303 0.023018 0.135868 0.272729 -0.147863 0.115731 -0.068581 -0.302564 -0.197050
needed -0.133599 0.005015 0.157274 -0.235968 0.013205 0.041479 -0.143876 0.116072 0.004436 -0.158706 0.172232 -0.078285 -0.009799 0.040404 -0.136825 0.025089 -0.168833 -0.215620 0.151419 0.078037 -0.079630 -0.101397 -0.103995 -0.213958 0.107445 -0.027865 -0.322420 -0.366404 0.236717 -0.154895 0.366696 -0.104663 0.209005 -0.060700 0.251779 0.186737 -0.020629 0.065007 0.191197 -0.238129 0.315734 0.098622 0.327641 -0.014616 -0.085348 0.197662 0.074293 0.106140 0.204524 0.022478 0.117597 0.016856 -0.154700 0.130785 0.136414 0.229085 0.016482 -0.193770 -0.377293 -0.224071 0.122763 -0.186492 -0.184860 -0.350726 -0.312057 -0.055219 -0.301810 0.163699 -0.431124 0.095739 0.304504 -0.074256 0.302646 0.178113 0.238913 0.127160 -0.096462 -0.081159 -0.391419 -0.223547 -0.209544 -0.253974 0.004669 -0.147827 0.102249 -0.003360 0.206183 -0.062933 0.002484 -0.136478 -0.033327 -0.177416 0.101770 -0.399728 0.081167 -0.278506 -0.306982 0.014038 -0.166483 -0.295999
